%YAML:1.0
---
opencv_ml_svm:
   format: 3
   svmType: C_SVC
   kernel:
      type: LINEAR
   C: 1.0000000000000001e-01
   term_criteria: { epsilon:1.1920928955078125e-07, iterations:1000 }
   var_count: 756
   class_count: 2
   class_labels: !!opencv-matrix
      rows: 2
      cols: 1
      dt: i
      data: [ -1, 1 ]
   sv_total: 1
   support_vectors:
      - [ 5.33370785e-02, -2.00617760e-02, -1.17340781e-01,
          1.60378870e-02, 4.78830263e-02, 6.51123226e-02,
          -7.25967064e-02, -6.18150085e-02, 1.13243898e-02,
          5.29713035e-02, -2.04651468e-02, -1.02879591e-01,
          4.87769954e-02, 1.11912116e-01, 6.18939400e-02,
          -4.53215130e-02, -5.25190234e-02, 4.48485240e-02,
          7.19010904e-02, -4.31886781e-03, -1.01759441e-01,
          1.90345068e-02, 7.69713074e-02, 6.70920089e-02,
          -4.77801710e-02, -4.07959223e-02, 7.12841600e-02,
          9.06302333e-02, 5.56880375e-03, -7.46489763e-02,
          4.22233343e-02, 6.54519871e-02, 5.66122383e-02,
          -2.84055676e-02, -1.19862864e-02, 8.44947845e-02,
          7.30163753e-02, -5.78390658e-02, -1.74951717e-01,
          4.45771962e-02, 1.16488330e-01, 1.60690825e-02, 6.29131729e-03,
          -7.71397771e-03, 7.93234184e-02, 6.03838451e-02,
          1.21950367e-02, 2.21167542e-02, 6.89396784e-02, 7.29457587e-02,
          -6.40308717e-04, 5.65755293e-02, 3.61264907e-02,
          7.37682804e-02, 6.42780960e-02, -8.08795318e-02,
          -1.41816407e-01, 6.51642084e-02, 2.19825488e-02,
          -5.71008585e-02, 3.61383408e-02, 2.36713812e-02,
          7.64145777e-02, 3.71545777e-02, 2.87463684e-02,
          -6.77981006e-04, 4.58699018e-02, -5.89233823e-02,
          -1.00768134e-01, 3.75038870e-02, 5.29284738e-02,
          6.38101473e-02, 1.34993708e-02, 5.25956638e-02, 4.38595824e-02,
          1.55265154e-02, 8.43992550e-03, 1.59493275e-02, 7.50184581e-02,
          5.01155965e-02, 2.44141147e-02, -9.75316856e-03,
          6.58822358e-02, 7.85179809e-02, -1.68564692e-02,
          -5.40674217e-02, 9.48192086e-03, 3.27084474e-02,
          2.25024614e-02, 6.55667298e-03, -4.81802365e-03,
          -1.72456901e-03, -5.88749163e-02, -2.84721293e-02,
          -1.17267169e-01, -7.84360915e-02, 5.29635698e-02,
          2.93625705e-02, 3.37119922e-02, -3.89131755e-02,
          3.74086238e-02, 2.90344395e-02, -4.70855087e-03,
          -4.06995080e-02, 2.32628360e-02, 1.32448077e-02,
          -1.80551540e-02, -1.14235189e-02, 7.36559927e-02,
          2.84846574e-02, -6.62647411e-02, 1.73687600e-02,
          8.89139622e-02, 3.95583585e-02, -3.54762040e-02,
          -1.69915985e-02, 6.87482134e-02, 6.84617385e-02,
          4.18744655e-03, -6.14636056e-02, 1.64319035e-02,
          3.11670490e-02, -1.89074390e-02, -1.54991513e-02,
          -2.74665337e-02, 6.12924993e-02, 4.61788438e-02,
          5.30029498e-02, 2.38204710e-02, 3.98510471e-02, 3.90509255e-02,
          1.44388881e-02, -9.26312059e-03, -2.03970410e-02,
          4.22926731e-02, -2.87063159e-02, -2.22734082e-03,
          -2.96211895e-02, 8.88870284e-03, -2.99605075e-02,
          -4.31010760e-02, -1.37773864e-02, -1.33423209e-02,
          -2.19589146e-03, 4.32592072e-02, -2.79357489e-02,
          -6.66336939e-02, 5.75195365e-02, 9.00974497e-03,
          -5.74082695e-02, 4.88747805e-02, 4.08954509e-02,
          8.04884881e-02, 2.51139440e-02, 3.89645025e-02, 1.33734019e-02,
          4.53908518e-02, -2.19793860e-02, -7.66744986e-02,
          3.43490541e-02, 6.90917820e-02, 8.08990225e-02,
          -4.65848558e-02, -6.93994388e-02, -2.91074570e-02,
          3.77815478e-02, -1.02347611e-02, -7.42366314e-02,
          7.78499469e-02, 2.59419680e-02, 9.97077394e-03,
          -5.59176244e-02, -1.09800827e-02, 2.42603589e-02,
          4.45577316e-02, -1.61791057e-03, -7.73197636e-02,
          -2.48271078e-02, -7.39334011e-03, 1.25765139e-02,
          2.27676239e-02, 4.75095250e-02, 5.65158436e-03, 1.55705586e-02,
          -2.92864963e-02, -3.37632410e-02, 7.66470283e-02,
          6.52475357e-02, 5.75905181e-02, -2.28478629e-02,
          3.87653820e-02, 4.24949564e-02, 1.22011229e-02, 1.86199639e-02,
          5.21946549e-02, 4.86654378e-02, 6.16874034e-03, 3.70288524e-03,
          -5.42913675e-02, -5.87942414e-02, -4.07480784e-02,
          -1.08397081e-02, -3.87359597e-02, -2.05460358e-02,
          1.73875019e-02, -1.03409942e-02, -6.58037374e-03,
          -3.96467969e-02, 8.12132657e-03, -3.25808078e-02,
          -2.61066128e-02, -5.05166911e-02, -2.33951136e-02,
          2.57393532e-02, 1.11602410e-03, -1.76517162e-02,
          2.35562865e-02, 7.59350657e-02, 3.58859450e-02, 2.68644802e-02,
          3.84897664e-02, 1.70469508e-02, 1.21588949e-02,
          -1.18134385e-02, 7.93180801e-03, -6.36513531e-02,
          -1.38487201e-02, 3.50387506e-02, -7.33979931e-03,
          -4.06529456e-02, -2.85771247e-02, 2.30063125e-02,
          -7.64438789e-03, -5.14277220e-02, 5.22603132e-02,
          6.81633353e-02, -9.22773685e-03, 1.99099947e-02,
          2.28862688e-02, -4.55186935e-03, -8.53862520e-03,
          -1.90182123e-03, 4.24496531e-02, -2.44233441e-02,
          3.03300709e-04, 6.67293072e-02, -6.11691289e-02,
          -7.16395751e-02, -1.23314440e-01, -6.19166112e-03,
          2.32884940e-02, -2.98306011e-02, -5.45231849e-02,
          2.91516110e-02, 7.75319636e-02, 2.08747499e-02,
          -9.21616796e-03, -3.93749215e-02, 5.16575500e-02,
          1.40489992e-02, 1.01794824e-02, -2.62749381e-02,
          3.64093133e-03, 2.61899959e-02, 3.65291722e-02,
          -1.43838841e-02, -5.51747344e-02, -1.89015642e-02,
          -1.69004370e-02, 3.01385224e-02, -5.86823709e-02,
          4.04718192e-03, 6.02481999e-02, -5.61819300e-02,
          -1.17199622e-01, -6.52355775e-02, 7.77628049e-02,
          1.63471047e-02, -2.36279275e-02, -3.41088511e-02,
          -1.92991812e-02, 1.55669563e-02, -4.88000065e-02,
          -1.23321153e-01, -1.03670523e-01, -4.28935364e-02,
          -4.02755290e-02, -2.38106791e-02, -2.14939099e-02,
          1.78128555e-02, 5.54101728e-02, 5.56109026e-02,
          -5.43568516e-03, -1.21367378e-02, 5.62705733e-02,
          3.53104249e-02, 1.73016600e-02, 1.12085566e-02, 4.23769914e-02,
          8.55161063e-03, 1.66216791e-02, 1.29064452e-02, 5.84190674e-02,
          8.59318674e-02, 6.08274005e-02, 3.99842858e-02,
          -3.97491567e-02, -5.26864976e-02, 3.76994372e-04,
          -1.70423463e-02, -7.28493929e-02, -5.66691086e-02,
          -7.94218760e-03, 5.54386014e-03, -1.56526547e-02,
          -5.21954615e-03, 3.73433381e-02, -4.75853123e-02,
          -1.29864914e-02, -2.17278562e-02, 2.36589462e-03,
          2.06282903e-02, 2.96960454e-02, 9.55010392e-03, 1.81029215e-02,
          3.58143337e-02, -5.41635491e-02, 4.00977122e-04,
          3.11268680e-02, 1.53069543e-02, -2.51369495e-02,
          -3.50799859e-02, 1.27649109e-03, -6.39690608e-02,
          -3.68243642e-02, 3.70643176e-02, -4.75686900e-02,
          -6.39439002e-02, -8.70467871e-02, 3.05150985e-03,
          5.27993171e-03, -9.61042494e-02, 7.64044141e-03,
          3.68573479e-02, -2.92443521e-02, 2.57602204e-02,
          4.42780368e-02, 3.68047841e-02, 6.33833325e-03,
          -3.31774838e-02, -1.96730508e-03, -4.53581885e-02,
          -2.21191905e-02, 5.89438975e-02, -1.60734951e-02,
          -3.23768258e-02, -3.00548896e-02, 3.76644917e-02,
          2.25627143e-02, -4.69268896e-02, -8.90189111e-02,
          1.85341053e-02, 8.87379274e-02, -5.37482798e-02,
          -6.83497488e-02, -7.65664652e-02, 4.28861305e-02,
          -9.15289624e-04, -8.77120793e-02, -6.34148344e-02,
          -3.64830717e-02, 6.74446523e-02, -5.78393601e-02,
          -9.72469002e-02, -7.05135465e-02, -2.54499055e-02,
          -2.54131071e-02, -9.65946615e-02, -7.54482374e-02,
          3.18071507e-02, 9.74024683e-02, -3.00868019e-03,
          -4.30316664e-02, -2.62051187e-02, 6.05342686e-02,
          2.28340458e-02, -3.44362818e-02, -1.19024158e-01,
          -6.07302152e-02, 9.79056656e-02, -3.47316787e-02,
          -1.33181676e-01, -8.77001882e-02, -9.18267202e-03,
          -2.62167361e-02, -1.00241177e-01, -4.38909531e-02,
          -3.56845965e-04, 9.98005271e-02, 2.19188500e-02,
          -3.10144816e-02, -2.81521678e-02, 3.06716543e-02,
          3.78568992e-02, -2.18111519e-02, -4.60445369e-03,
          -4.42679273e-03, -3.48092131e-02, 1.17914667e-02,
          2.40327008e-02, 5.38970381e-02, 5.57209328e-02, 2.80785672e-02,
          2.38363966e-02, -1.42715499e-01, -6.24510087e-02,
          1.20292388e-01, 4.77944352e-02, -6.99042827e-02,
          -5.41460887e-02, 4.29731011e-02, 8.98807682e-03,
          -8.85408074e-02, -4.60256487e-02, -4.78424020e-02,
          -6.70086741e-02, 6.05226588e-03, 7.14138092e-04,
          5.68038821e-02, 9.34986919e-02, 2.03726888e-02,
          -2.05952581e-02, 4.85814288e-02, 3.20395268e-02,
          -2.11498328e-02, 2.56478526e-02, 4.83144633e-02,
          9.52036493e-03, -3.21557932e-02, -1.15451952e-02,
          6.04690909e-02, -1.66712478e-02, 3.22498642e-02,
          7.85816833e-02, -6.60617203e-02, -8.66538659e-02,
          -6.68257102e-02, -7.90727139e-03, 2.00009812e-02,
          -5.14307842e-02, 4.50904183e-02, 1.24856802e-02,
          -4.33528908e-02, 2.80489139e-02, 1.47527054e-01,
          1.05716567e-02, -5.51487319e-02, -5.95809743e-02,
          4.09491956e-02, -3.73538397e-02, -2.52757035e-02,
          3.36750634e-02, -5.50320260e-02, 5.10063488e-03,
          -4.68916744e-02, -3.76300067e-02, -5.86995855e-02,
          -1.22847520e-01, -5.77038303e-02, 1.22233089e-02,
          8.49396735e-02, -6.23081438e-02, -9.59291160e-02,
          -4.83848527e-02, 4.86019813e-02, 4.52283397e-03,
          -4.70328815e-02, -1.57424062e-01, -8.72375518e-02,
          1.24852389e-01, -3.54992934e-02, -1.14393108e-01,
          -9.61863399e-02, -2.06201747e-02, -2.69980244e-02,
          -8.75356793e-02, -6.21459670e-02, 1.72909815e-02,
          1.16027012e-01, -6.89141303e-02, -5.14710471e-02,
          -9.69319488e-04, 9.87588465e-02, 2.58406457e-02,
          -1.30412236e-01, -1.07732967e-01, -3.14609259e-02,
          1.66803122e-01, -4.21061851e-02, -6.53586537e-02,
          9.95213981e-04, 2.04175478e-03, -7.74038397e-03,
          -1.54390842e-01, -2.31976464e-01, -1.18521512e-01,
          1.46916494e-01, 6.43694168e-03, -4.15243953e-02,
          -3.09783164e-02, 1.40937213e-02, 6.63572515e-04,
          -8.52481276e-02, -8.39791894e-02, -7.37365708e-02,
          -4.62806784e-02, -1.36826774e-02, -1.40667451e-03,
          6.44832179e-02, 2.54598092e-02, 1.19506012e-05,
          -3.23028155e-02, -1.05033115e-01, -2.21545473e-02,
          2.21226901e-01, 1.13544539e-02, 2.00556573e-02, 5.87483868e-02,
          5.07702492e-02, 2.47637909e-02, -5.83766177e-02,
          -5.61454147e-02, -3.62531841e-02, 1.30177001e-02,
          5.55331539e-03, 4.28297408e-02, 1.08850673e-01, 4.48267236e-02,
          3.37652303e-02, -2.65413104e-03, 6.96408078e-02,
          2.59560999e-02, -8.34542420e-03, 4.83577214e-02,
          1.05228402e-01, 4.11791131e-02, -5.60504645e-02,
          -3.43620516e-02, 5.33546396e-02, 4.77092229e-02,
          -6.89991638e-02, -2.21028756e-02, 1.14486972e-02,
          8.95253345e-02, -9.93142836e-03, -4.76780087e-02,
          -4.57033664e-02, 1.22633576e-02, 3.91423590e-02,
          3.99554372e-02, 2.50770170e-02, 7.92781636e-02, 3.62424105e-02,
          3.98428850e-02, -5.47184087e-02, -7.33703328e-03,
          2.79486440e-02, 1.67267527e-02, -8.23722407e-02,
          -1.24589294e-01, 2.52763424e-02, 3.49848904e-02,
          -8.23586956e-02, -1.68721080e-01, -1.20390542e-01,
          7.49614611e-02, 4.04148400e-02, -3.99954058e-02,
          8.79663043e-03, -3.75637673e-02, 2.22097822e-02,
          3.91436033e-02, 1.04545586e-01, 9.90957115e-03,
          -6.05672188e-02, -8.41092840e-02, 4.68658563e-03,
          1.20052502e-01, -6.39335662e-02, -6.43615127e-02,
          1.52569367e-02, 6.68363348e-02, 6.49890024e-03,
          -1.38363048e-01, 9.59548801e-02, -3.47151011e-02,
          -4.36756834e-02, -1.42779276e-02, 8.12452566e-03,
          -1.93442199e-02, -3.04311980e-02, -2.18522064e-02,
          3.88900489e-02, -5.59671642e-03, 3.82532440e-02,
          1.01034209e-01, -7.59382322e-02, -6.95447996e-02,
          -2.88152900e-02, 5.46349809e-02, 3.51784416e-02,
          -1.25689104e-01, -1.47616029e-01, -5.00125736e-02,
          7.21621737e-02, -2.04378236e-02, 1.59405954e-02,
          6.14968650e-02, 8.08898434e-02, 5.30171022e-03,
          -1.57206118e-01, -5.66857681e-02, -8.02256539e-02,
          -2.16605067e-02, -1.29745100e-02, 1.21513121e-02,
          5.81537746e-02, 4.18073311e-02, 9.42554325e-03,
          -3.03199943e-02, -8.40486884e-02, 9.63890925e-02,
          1.66735038e-01, -7.12561831e-02, -2.71244776e-02,
          1.82829946e-02, 1.14915214e-01, 3.75282429e-02,
          -1.21421456e-01, -2.43839212e-02, -8.85584578e-03,
          1.76940486e-02, -6.23714402e-02, -2.02292688e-02,
          2.92805620e-02, 2.97064520e-02, -1.36930356e-02,
          -4.85859513e-02, 2.96609718e-02, 2.57387366e-02,
          6.42285943e-02, 5.42700887e-02, 2.51200013e-02, 1.98924243e-02,
          -1.40762841e-02, 1.12055102e-02, 4.10034321e-02,
          2.79321298e-02, -5.29839359e-02, -5.74287958e-02,
          4.69629429e-02, 5.17507866e-02, -4.12058737e-03,
          -1.55145124e-01, -6.29284829e-02, 9.18120816e-02,
          2.39957236e-02, 3.60607579e-02, 8.11819285e-02, 2.21428126e-02,
          -9.33992304e-03, -3.90157360e-03, -1.91904809e-02,
          4.27259831e-03, 7.11375773e-02, 6.94523081e-02, 2.96081044e-02,
          -4.20817509e-02, 2.01108176e-02, 2.48635816e-03,
          -4.63494062e-02, -1.69771090e-01, -8.23462233e-02,
          8.84473920e-02, 2.11266074e-02, -7.04988465e-02,
          -9.83000621e-02, 2.19916683e-02, 2.62645725e-02,
          -2.17218138e-03, -8.01653340e-02, -5.35576753e-02,
          8.82772356e-02, 6.89223409e-03, -7.17516383e-03,
          3.63669358e-02, -4.64546047e-02, -3.41051482e-02,
          -3.53889242e-02, 7.58966431e-02, 1.46217402e-02,
          -5.98881580e-02, 1.61065981e-02, -1.58688184e-02,
          -1.03589445e-01, 1.38257481e-02, 8.23903531e-02,
          -3.22047919e-02, -1.01470977e-01, -5.87318987e-02,
          7.23307431e-02, 5.20091951e-02, -1.42945843e-02,
          -1.71258654e-02, 5.57475910e-03, 9.78260189e-02,
          -1.19134570e-02, 5.63507974e-02, 1.97531190e-02,
          3.10258679e-02, -7.32510239e-02, 5.20200841e-02,
          1.17833942e-01, -7.46973231e-02, -4.95001897e-02,
          -3.59880924e-02, 7.90745988e-02, -2.30654143e-02,
          -1.35200620e-01, -5.77590577e-02, -2.23837011e-02,
          1.52843427e-02, -6.29534870e-02, -4.08765748e-02,
          9.01337340e-03, -5.42706857e-03, -4.55920845e-02,
          -1.03453562e-01, -5.65837510e-03, 4.53551076e-02,
          6.30492866e-02, -2.90126521e-02, 5.45818731e-03,
          -1.18311942e-02, 1.27316698e-01, 1.53554725e-02,
          -6.04324378e-02, -4.38572690e-02, 3.58900726e-02,
          4.51741479e-02, -3.81326750e-02, -6.43237084e-02,
          2.90108956e-02, 8.14487711e-02, -6.12015184e-03,
          -7.37084150e-02 ]
   uncompressed_sv_total: 47
   uncompressed_support_vectors:
      - [ 3.05783629e-01, 1.20109988e-04, 4.96396329e-04, 9.92734823e-03,
          9.99168679e-02, 9.75153670e-02, 1.77303869e-02, 2.53072218e-03,
          3.28060538e-01, 2.49170423e-01, 3.79820950e-02, 2.32645288e-01,
          6.35826169e-03, 7.33982027e-02, 7.90037140e-02, 3.44989955e-01,
          3.44989955e-01, 3.34103316e-01, 4.53318673e-04, 1.09799125e-03,
          6.09449809e-03, 1.13256713e-02, 4.98962924e-02, 7.97977373e-02,
          2.84505058e-02, 4.60499665e-03, 8.18155531e-04, 4.36428149e-04,
          3.85431983e-02, 2.09111929e-01, 6.19507907e-03, 2.49955375e-02,
          5.25390580e-02, 3.44989955e-01, 3.44989955e-01, 1.44329027e-03,
          3.21550183e-02, 1.16344973e-01, 3.56245965e-01, 1.19780330e-02,
          1.23273889e-02, 8.65937956e-03, 3.56245965e-01, 2.33880267e-01,
          6.40821233e-02, 4.71215790e-05, 1.25808552e-01, 3.56245965e-01,
          2.15246510e-02, 1.28534541e-03, 2.39846428e-04, 7.51927346e-02,
          3.38382423e-02, 1.39653974e-03, 2.69738812e-05, 1.52263656e-01,
          3.56245965e-01, 1.61203416e-03, 3.12132388e-03, 4.91529098e-03,
          3.56245965e-01, 2.59686917e-01, 1.94779932e-04, 6.05848873e-05,
          1.84934765e-01, 3.56245965e-01, 6.04958599e-03, 0., 0.,
          1.05788253e-01, 4.52363826e-02, 0., 2.17537824e-02,
          2.81305403e-01, 5.63899457e-01, 1.17679097e-01, 1.88365262e-02,
          6.42637070e-03, 6.25416683e-03, 4.21461137e-03, 7.09973415e-03,
          6.04152866e-02, 7.77387545e-02, 1.28578350e-01, 4.94755097e-02,
          5.68679906e-02, 5.17806932e-02, 4.55342084e-02, 4.00671475e-02,
          4.63333949e-02, 1.77626163e-02, 3.86608750e-01, 5.63899457e-01,
          1.06586657e-01, 6.08928083e-03, 5.41330921e-03, 7.32079288e-03,
          5.12320781e-03, 6.57242490e-03, 5.18377088e-02, 7.34302849e-02,
          1.91319823e-01, 7.59625137e-02, 4.55143452e-02, 5.54505475e-02,
          4.69698161e-02, 5.35555854e-02, 4.50142920e-02, 1.61150761e-03,
          9.57851391e-03, 4.82875258e-02, 2.96134800e-02, 7.53048211e-02,
          4.80840579e-02, 2.36529652e-02, 9.37788375e-03, 3.28976102e-03,
          1.19334774e-03, 3.87147814e-02, 2.01112360e-01, 7.25581218e-03,
          1.68434866e-02, 3.59920338e-02, 4.22517926e-01, 4.22517926e-01,
          2.73115630e-03, 4.07863781e-03, 1.72953337e-01, 3.60944688e-01,
          5.11665791e-02, 1.42177358e-01, 3.39557603e-02, 2.06501801e-02,
          1.55119076e-02, 9.39093623e-03, 2.84741400e-03, 5.16124777e-02,
          1.93184286e-01, 3.59451119e-03, 1.53488964e-02, 3.06041930e-02,
          4.22517926e-01, 4.22517926e-01, 5.97104989e-03, 4.11111359e-05,
          1.23595148e-01, 3.48159373e-01, 1.22764800e-03, 1.28576020e-03,
          2.50702072e-03, 3.48159373e-01, 2.28994548e-01, 2.80479639e-04,
          7.57956423e-06, 1.51927933e-01, 3.48159373e-01, 2.55502295e-03,
          0., 0., 1.06593698e-01, 4.69156988e-02, 0., 2.11449718e-04,
          1.50913194e-01, 3.48159373e-01, 5.39240893e-04, 1.25175668e-03,
          2.30870373e-03, 3.48159373e-01, 2.79545605e-01, 4.96807101e-04,
          0., 1.83944419e-01, 3.48159373e-01, 1.70529331e-03, 0., 0.,
          1.59697995e-01, 6.77215084e-02, 0., 2.93908548e-03,
          2.75554329e-01, 5.72203815e-01, 5.11607714e-02, 1.60931819e-03,
          6.94558676e-03, 7.46455789e-03, 5.22689568e-03, 3.35779251e-03,
          9.89110116e-03, 5.13991043e-02, 2.00428382e-01, 4.04723063e-02,
          2.80002560e-02, 6.40857965e-02, 4.91688326e-02, 4.88012433e-02,
          2.26875097e-02, 3.45440023e-03, 3.47048759e-01, 5.72203815e-01,
          3.93932164e-02, 2.89523043e-03, 7.64982915e-03, 1.37003148e-02,
          5.94012579e-03, 2.23618792e-03, 1.66208055e-02, 8.39198008e-02,
          2.37504184e-01, 4.03926633e-02, 2.66576316e-02, 7.60859773e-02,
          9.33745801e-02, 5.30002303e-02, 1.75724905e-02, 1.77319255e-02,
          3.10502023e-01, 3.35182577e-01, 1.80526432e-02, 5.85986823e-02,
          2.53852122e-02, 1.60395838e-02, 1.13122342e-02, 1.26779843e-02,
          3.72398691e-03, 5.25435954e-02, 1.54707149e-01, 2.93670269e-03,
          6.65179221e-03, 2.06344314e-02, 4.05002326e-01, 4.05002326e-01,
          5.86050609e-03, 2.90892180e-02, 2.00515643e-01, 1.62987486e-01,
          7.59912236e-03, 2.66057495e-02, 2.41529997e-02, 1.58201102e-02,
          8.16550571e-03, 1.32715739e-02, 3.18419910e-03, 5.38624637e-02,
          1.59975335e-01, 4.59404523e-03, 4.05004248e-03, 2.43329275e-02,
          4.05002326e-01, 4.05002326e-01, 2.91222776e-03, 2.48892582e-04,
          1.30016267e-01, 3.42318088e-01, 9.73333299e-05, 3.46173823e-04,
          1.43659569e-03, 3.42318088e-01, 2.33542159e-01, 3.53847281e-04,
          0., 1.63977325e-01, 3.42318088e-01, 5.94555633e-04, 0., 0.,
          1.51187569e-01, 6.29207268e-02, 0., 6.11297728e-05,
          1.37293994e-01, 3.42318088e-01, 2.46243930e-04, 0.,
          2.24910560e-03, 3.42318088e-01, 2.70367801e-01, 2.10926577e-04,
          0., 1.82814091e-01, 3.42318088e-01, 7.02958729e-04, 0., 0.,
          1.91503838e-01, 7.92894214e-02, 0., 3.53671191e-03,
          3.09658825e-01, 5.70019245e-01, 2.65742615e-02, 8.65614216e-04,
          4.05022874e-03, 9.65006463e-03, 2.72483844e-03, 3.62870953e-04,
          1.98747739e-02, 7.94505700e-02, 1.89977825e-01, 3.50326821e-02,
          1.37173329e-02, 5.10904416e-02, 6.25925511e-02, 3.34989652e-02,
          1.56304371e-02, 3.41746584e-03, 3.40371519e-01, 5.70019245e-01,
          2.90232617e-02, 7.19564443e-04, 5.89370495e-03, 7.92260375e-03,
          1.96331344e-03, 1.42791367e-04, 1.31323468e-02, 7.87910745e-02,
          2.48331100e-01, 3.38083468e-02, 1.26421480e-02, 7.36678913e-02,
          5.81502318e-02, 2.39022635e-02, 9.47508495e-03, 2.78511941e-02,
          9.98080894e-02, 1.87473148e-01, 7.02870125e-03, 2.33500134e-02,
          2.96797659e-02, 2.21452806e-02, 1.89450830e-02, 2.01879907e-02,
          4.93802922e-03, 5.39901108e-02, 1.49039865e-01, 3.37267853e-03,
          3.17069562e-03, 3.42586860e-02, 4.67914969e-01, 4.67914969e-01,
          8.82197917e-03, 3.63881215e-02, 5.62880486e-02, 1.46446407e-01,
          1.13565298e-02, 1.88315231e-02, 3.09699029e-02, 2.95895617e-02,
          3.70200127e-02, 4.30962555e-02, 9.88104194e-03, 3.60901468e-02,
          9.98790413e-02, 5.55183692e-03, 6.88021118e-03, 3.64135653e-02,
          4.67914969e-01, 4.67914969e-01, 1.55732697e-02, 7.05528655e-05,
          1.13813929e-01, 3.41058969e-01, 1.80926319e-04, 1.35899667e-04,
          2.50898860e-03, 3.41058969e-01, 2.39403531e-01, 5.51326375e-04,
          0., 1.62549198e-01, 3.41058969e-01, 6.32539857e-04, 0.,
          1.02685490e-05, 1.75202936e-01, 7.64788911e-02, 0.,
          5.95272053e-04, 1.10304624e-01, 3.41058969e-01, 5.50622644e-04,
          3.83992010e-04, 2.57793628e-03, 3.41058969e-01, 2.68696427e-01,
          8.09114077e-04, 0., 1.81018353e-01, 3.41058969e-01,
          6.23081170e-04, 0., 2.25908097e-05, 1.97813317e-01,
          9.56644043e-02, 0., 1.76822778e-03, 2.93967992e-01,
          5.73099613e-01, 2.29971688e-02, 1.51379709e-03, 6.34816615e-03,
          2.71088909e-03, 3.94485309e-04, 1.74314719e-05, 7.38927955e-03,
          6.91217482e-02, 2.01864302e-01, 2.55644452e-02, 1.29097411e-02,
          7.13527799e-02, 4.01467793e-02, 7.44609116e-03, 2.01557670e-03,
          1.31366658e-03, 3.59867901e-01, 5.73099613e-01, 2.23600920e-02,
          5.67067973e-03, 5.71662188e-03, 9.33831150e-04, 6.49826979e-05,
          5.06647164e-04, 1.03043923e-02, 6.98369071e-02, 2.35071197e-01,
          4.12171260e-02, 3.41689810e-02, 5.81340380e-02, 2.43830234e-02,
          5.71723236e-03, 6.30312646e-03, 2.76838467e-02, 2.44338103e-02,
          5.14146872e-02, 1.62230972e-02, 2.10685451e-02, 3.89497392e-02,
          3.68108079e-02, 4.27516513e-02, 3.59503999e-02, 1.08513394e-02,
          1.60185862e-02, 5.04346229e-02, 1.88565385e-02, 1.11784665e-02,
          4.54334244e-02, 4.90358442e-01, 4.90358442e-01, 2.05605198e-02,
          3.45110744e-02, 3.05532776e-02, 1.95304435e-02, 1.07403202e-02,
          2.01844517e-02, 4.44974340e-02, 4.64875922e-02, 3.61762792e-02,
          3.15569416e-02, 3.51414829e-02, 3.75664979e-02, 2.15194263e-02,
          1.46190329e-02, 8.64511076e-03, 3.87227349e-02, 4.90358442e-01,
          4.90358442e-01, 4.83071767e-02, 5.66583767e-04, 8.12347159e-02,
          3.33314925e-01, 1.94892427e-03, 7.19865959e-04, 2.08648690e-03,
          3.33314925e-01, 2.32089773e-01, 1.44265115e-03, 0.,
          1.52171239e-01, 3.33314925e-01, 1.07750134e-03, 1.81584455e-05,
          5.03818410e-06, 1.84607968e-01, 9.13477018e-02, 4.32313718e-05,
          2.03648093e-03, 9.80546996e-02, 3.33314925e-01, 1.84984261e-03,
          6.46385073e-04, 1.74462318e-03, 3.33314925e-01, 2.67090440e-01,
          4.35455609e-03, 0., 1.95687339e-01, 3.33314925e-01,
          6.55442185e-04, 2.33465707e-05, 1.67337330e-05, 2.65795261e-01,
          1.18726425e-01, 1.27048319e-04, 1.46887894e-03, 2.92852640e-01,
          5.69805562e-01, 2.08128039e-02, 3.37337144e-03, 2.30451324e-03,
          3.28991271e-04, 7.47166223e-06, 5.06885466e-04, 1.07749896e-02,
          5.89376390e-02, 1.85706377e-01, 3.64233628e-02, 3.04108672e-02,
          2.19167210e-02, 1.28625240e-02, 6.02512108e-03, 6.87335478e-03,
          4.16146079e-03, 4.20172930e-01, 5.69805562e-01, 1.73569601e-02,
          1.68752426e-03, 2.69559823e-04, 6.93165988e-04, 2.18247194e-04,
          5.24078496e-04, 8.99870321e-03, 7.75372908e-02, 1.82441205e-01,
          2.53904387e-02, 2.42810380e-02, 9.77012888e-03, 9.02286358e-03,
          3.71214980e-03, 3.23886378e-03, 2.89800223e-02, 2.62617990e-02,
          1.27510438e-02, 2.51654256e-03, 9.72316973e-03, 1.91266928e-02,
          2.45873407e-02, 1.93686578e-02, 2.29689088e-02, 2.79341415e-02,
          3.35123688e-02, 1.50356684e-02, 7.52415275e-03, 1.61804492e-03,
          1.84157845e-02, 4.00002152e-01, 3.27955544e-01, 2.46540736e-02,
          8.50098953e-02, 1.76519454e-02, 1.33188125e-02, 2.31723458e-01,
          4.00002152e-01, 1.80124845e-02, 2.27170512e-02, 1.80562884e-02,
          1.57302514e-01, 3.81882600e-02, 2.07166765e-02, 1.83295812e-02,
          1.99037418e-01, 4.00002152e-01, 4.13545854e-02, 4.00002152e-01,
          3.27875674e-01, 5.71526997e-02, 2.06975709e-03, 8.95461440e-02,
          3.14555615e-01, 1.20504235e-03, 4.44286343e-05, 1.67956320e-03,
          3.14555615e-01, 2.22131103e-01, 2.50257109e-03, 0.,
          1.79860547e-01, 3.14555615e-01, 1.06531668e-04, 2.96190910e-06,
          5.28920027e-05, 2.45052382e-01, 1.09233581e-01, 3.83056249e-05,
          1.18982734e-03, 1.10173300e-01, 3.14555615e-01, 2.06651483e-02,
          7.29868338e-02, 1.51587585e-02, 3.14555615e-01, 2.43229717e-01,
          3.29667027e-03, 8.11080448e-04, 2.52382874e-01, 3.14555615e-01,
          1.20271835e-03, 7.33804330e-03, 5.76191070e-03, 2.88377851e-01,
          1.31279558e-01, 6.26650726e-05, 5.54084172e-03, 3.74961585e-01,
          5.20371318e-01, 9.07494128e-03, 1.46672246e-03, 3.26363988e-05,
          1.59686245e-03, 5.30736696e-04, 7.79329857e-04, 9.97569412e-03,
          5.62875979e-02, 1.27555519e-01, 1.09372204e-02, 8.05133954e-03,
          5.87747805e-03, 1.29918065e-02, 5.56895370e-03, 4.03322093e-03,
          1.30344443e-02, 5.20371318e-01, 5.20371318e-01, 7.16627622e-03,
          1.51273934e-03, 0., 1.13688409e-03, 3.78961355e-04,
          1.20871817e-03, 2.33013853e-02, 8.98430049e-02, 1.09631367e-01,
          8.08490254e-03, 6.91702217e-03, 3.33159138e-03, 1.61623191e-02,
          1.70180444e-02, 1.48541695e-02, 1.78207010e-01, 5.17016929e-03,
          6.75880024e-03, 1.60314217e-01, 3.24571460e-01, 3.12483637e-03,
          1.78019423e-03, 1.73305953e-03, 3.24571460e-01, 1.43239990e-01,
          1.68763753e-03, 1.73826085e-03, 1.71879888e-01, 3.24571460e-01,
          2.57346444e-02, 1.17306136e-01, 5.04903272e-02, 3.24571460e-01,
          2.34584928e-01, 3.58139612e-02, 3.64542082e-02, 6.11992143e-02,
          1.74509987e-01, 7.22189550e-04, 6.15037745e-04, 1.48802891e-03,
          3.24571460e-01, 2.57291526e-01, 4.41556983e-03, 1.06604688e-03,
          8.98702666e-02, 2.70459026e-01, 1.37119181e-02, 2.14453470e-02,
          1.24867605e-02, 3.24571460e-01, 1.10439688e-01, 1.30988106e-01,
          2.78317839e-01, 7.41646811e-02, 2.67745584e-01, 5.20160496e-02,
          2.78317839e-01, 1.47595331e-01, 2.71449149e-01, 7.31913224e-02,
          2.78317839e-01, 2.78317839e-01, 5.38359070e-03, 3.10350526e-02,
          2.20936723e-02, 2.01676577e-01, 8.57170969e-02, 7.49845281e-02,
          2.77238131e-01, 1.15127161e-01, 1.09380141e-01, 4.64563482e-02,
          1.59283757e-01, 3.09630986e-02, 6.60056546e-02, 2.50508208e-02,
          2.78317839e-01, 2.08514467e-01, 2.60209173e-01, 2.38505960e-01,
          3.99968214e-03, 2.09116880e-02, 1.34982197e-02, 4.14914936e-02,
          1.50776412e-02, 1.96234792e-01, 1.25090837e-01, 4.84512240e-01,
          4.84512240e-01, 2.50698952e-03, 3.83171067e-03, 0.,
          2.55046692e-03, 1.95418508e-03, 1.64430477e-02, 4.71414626e-02,
          1.01687446e-01, 6.01957627e-02, 1.86685217e-03, 1.69199724e-02,
          4.67619207e-03, 2.21266113e-02, 2.20883638e-02, 2.48511937e-02,
          2.63408542e-01, 4.84512240e-01, 4.19344962e-01, 1.10483833e-03,
          6.82625175e-03, 0., 8.06713570e-03, 6.36743754e-03,
          6.30187243e-02, 4.02342379e-02, 4.10246514e-02, 1.77192204e-02,
          2.19767401e-03, 2.02819407e-02, 1.20436931e-02, 3.89974788e-02,
          2.82186940e-02, 3.17654163e-02 ]
      - [ 2.02182885e-02, 1.70198288e-02, 6.91529363e-02, 2.34086871e-01,
          4.08492565e-01, 4.55860533e-02, 7.67235830e-03, 2.61484040e-03,
          1.04648545e-02, 7.26466905e-03, 3.47225964e-02, 1.14762798e-01,
          3.10137182e-01, 4.08492565e-01, 2.95299515e-02, 1.81829790e-03,
          6.70179026e-04, 2.80492706e-03, 3.11790973e-01, 5.17032184e-02,
          6.26476780e-02, 7.25474507e-02, 7.39402846e-02, 6.61504641e-03,
          9.86802205e-03, 2.08684430e-01, 3.87749076e-01, 3.23537022e-01,
          1.44821778e-01, 1.62722126e-01, 1.07181132e-01, 4.88360673e-02,
          5.76485880e-03, 2.14255834e-03, 3.81990871e-03, 1.16293423e-01,
          1.12170307e-02, 4.94956709e-02, 1.17070489e-01, 3.12551677e-01,
          4.14054692e-01, 1.68358572e-02, 9.13630240e-04, 1.85608034e-04,
          3.23172193e-04, 2.20561530e-02, 5.47464974e-02, 1.37039781e-01,
          3.60607505e-01, 4.14054692e-01, 4.88521438e-03, 1.37742201e-03,
          1.34985545e-03, 2.89086811e-03, 3.35570008e-01, 1.80327922e-01,
          1.77419707e-01, 1.01346761e-01, 3.18832025e-02, 5.27477870e-03,
          6.98602933e-04, 9.32758849e-04, 1.29081398e-01, 2.58136839e-01,
          1.82251349e-01, 2.02572435e-01, 1.29099041e-01, 3.04988213e-02,
          1.24137488e-03, 9.68038628e-04, 1.23767713e-02, 1.52215660e-01,
          2.75968970e-03, 1.44447133e-01, 4.02331650e-01, 7.16137141e-02,
          1.37632102e-01, 1.17722107e-03, 3.34137178e-04, 6.59660785e-04,
          1.34613656e-03, 8.42971960e-04, 3.07340324e-01, 4.02331650e-01,
          4.19532359e-02, 3.86924222e-02, 1.50562590e-03, 5.14316708e-02,
          1.07665071e-02, 7.37364462e-04, 1.88536067e-02, 2.07345232e-01,
          4.02331650e-01, 2.04140786e-02, 4.34958143e-03, 5.35100407e-04,
          4.81603318e-04, 5.28534595e-03, 9.66533087e-03, 5.37856994e-03,
          3.94696832e-01, 4.02331650e-01, 8.37551244e-03, 2.04118225e-03,
          9.64936626e-04, 5.48879467e-02, 1.60331856e-02, 2.40678852e-03,
          1.31728575e-01, 8.56873393e-03, 5.03380038e-03, 1.74752797e-03,
          2.91894539e-03, 4.44761477e-04, 3.81554998e-02, 3.70988697e-01,
          2.75364965e-01, 2.54022837e-01, 1.68625891e-01, 6.54234290e-02,
          2.47111102e-03, 6.15862955e-04, 7.24343816e-04, 6.39848085e-03,
          2.07002647e-02, 8.30213353e-02, 5.66324294e-02, 9.77426674e-03,
          5.41795865e-02, 7.89584592e-03, 2.96609849e-02, 9.47700406e-04,
          3.06238413e-01, 3.70988697e-01, 2.22575396e-01, 1.89219728e-01,
          3.70988697e-01, 3.70988697e-01, 0., 2.62093754e-03,
          2.08494067e-03, 9.68445912e-02, 2.15146661e-01, 6.64949045e-02,
          2.97884077e-01, 1.94635242e-01, 5.33811487e-02, 4.10533650e-03,
          5.14598750e-03, 7.27550476e-04, 1.37854891e-03, 2.79426314e-02,
          1.90924138e-01, 2.30160668e-01, 7.91282132e-02, 1.94819011e-02,
          1.14307450e-02, 9.41680279e-03, 6.73444767e-04, 1.43905322e-03,
          1.34323582e-01, 3.16890538e-01, 2.81885535e-01, 3.16890538e-01,
          3.16890538e-01, 2.56201923e-02, 2.76517253e-02, 8.06466676e-03,
          4.05149795e-02, 8.73782933e-02, 2.13959813e-01, 2.24308625e-01,
          1.35786399e-01, 1.04556285e-01, 1.63045138e-01, 7.59454370e-02,
          9.99426004e-03, 4.44292128e-02, 3.16890538e-01, 3.16890538e-01,
          4.63508256e-02, 1.60792768e-01, 3.32014412e-01, 6.20383909e-03,
          2.28513405e-03, 7.97723187e-05, 2.95091217e-04, 7.43919909e-02,
          2.02967316e-01, 1.24149527e-02, 3.05065811e-01, 3.32014412e-01,
          4.85887146e-03, 8.26842093e-04, 1.78799630e-04, 3.19991596e-02,
          1.94186941e-02, 2.65309010e-02, 9.87590477e-02, 1.58931077e-01,
          2.88351834e-01, 1.13965943e-01, 3.46092954e-02, 1.31890457e-03,
          5.25347330e-03, 2.75101990e-01, 3.32014412e-01, 7.98844174e-02,
          3.23660076e-01, 3.32014412e-01, 3.27843204e-02, 8.82548466e-03,
          1.24996784e-03, 2.90373527e-02, 8.39611962e-02, 2.39548475e-01,
          1.18127335e-02, 1.55032752e-02, 1.18765347e-01, 1.65838227e-02,
          1.77598819e-02, 7.50665204e-04, 3.06748480e-01, 3.06748480e-01,
          3.27199250e-02, 2.01488957e-02, 2.03037545e-01, 3.06748480e-01,
          3.29394152e-06, 2.31251679e-03, 2.86001363e-03, 1.51551962e-01,
          2.15431690e-01, 1.63942501e-02, 5.71637228e-03, 4.75788228e-02,
          3.00794065e-01, 2.01828256e-02, 3.02270916e-03, 2.71955575e-03,
          3.06748480e-01, 3.06748480e-01, 6.49374491e-03, 8.38824827e-03,
          2.13363916e-01, 3.06748480e-01, 4.37270058e-03, 1.67453266e-03,
          5.06355288e-03, 3.06748480e-01, 2.67679542e-01, 1.73382740e-02,
          3.74207385e-02, 3.75178814e-01, 3.75178814e-01, 1.83685757e-02,
          1.57597158e-02, 7.01758685e-03, 6.06972277e-02, 1.05076112e-01,
          4.76998389e-02, 3.10560036e-02, 9.62795764e-02, 1.95015624e-01,
          1.74213991e-01, 5.79450205e-02, 7.26655917e-03, 6.93166703e-02,
          2.60570407e-01, 3.71015251e-01, 3.68658174e-03, 3.75178814e-01,
          3.75178814e-01, 2.61725276e-03, 1.01542438e-03, 2.61705555e-03,
          6.07086197e-02, 7.31203482e-02, 1.72414817e-02, 4.34456300e-03,
          9.56381336e-02, 2.53243089e-01, 1.91158969e-02, 3.41798877e-03,
          9.65880288e-04, 8.14989880e-02, 1.57290831e-01, 8.59268233e-02,
          1.47761732e-01, 1.33629218e-01, 1.94685489e-01, 3.40254039e-01,
          8.78683776e-02, 3.07283388e-03, 2.35564485e-02, 3.40254039e-01,
          3.40254039e-01, 1.75741583e-01, 2.93698370e-01, 3.40254039e-01,
          2.48901218e-01, 5.29709421e-02, 1.14566553e-02, 4.92667705e-02,
          1.13282613e-01, 3.40254039e-01, 6.20959140e-02, 1.44235231e-02,
          2.39405464e-02, 1.06086038e-01, 1.60190556e-02, 2.39845272e-03,
          4.12916616e-02, 1.22164682e-01, 2.07132563e-01, 8.54035914e-02,
          5.21945991e-02, 8.53071883e-02, 1.73721731e-01, 3.71734090e-02,
          1.03052938e-02, 1.50764016e-02, 1.57642122e-02, 9.71603021e-02,
          1.05694041e-03, 7.33269528e-02, 2.87321031e-01, 7.42213614e-03,
          1.26442395e-03, 3.89165804e-03, 3.26454133e-01, 2.39920661e-01,
          1.95316644e-03, 3.40187643e-03, 1.78254336e-01, 3.26454133e-01,
          8.12612846e-03, 5.48840966e-03, 2.99675274e-03, 3.26454133e-01,
          1.71656430e-01, 6.65107789e-03, 5.04891574e-03, 1.34777099e-01,
          2.46598154e-01, 2.92792055e-03, 4.06848593e-03, 1.62758045e-02,
          3.26454133e-01, 1.49608359e-01, 3.39693297e-03, 2.25866097e-03,
          1.95318654e-01, 3.26454133e-01, 6.75213104e-03, 1.08923661e-02,
          1.20535893e-02, 3.26454133e-01, 1.00878596e-01, 2.87974789e-03,
          2.98007648e-03, 4.30718988e-01, 4.40049231e-01, 7.98851158e-03,
          5.39073395e-03, 7.71058956e-03, 7.65219256e-02, 3.70806381e-02,
          5.23951091e-03, 3.85844475e-03, 9.32790935e-02, 2.70599186e-01,
          3.14022647e-03, 4.55105118e-03, 1.67891085e-02, 1.10275745e-01,
          8.08791965e-02, 1.39919529e-02, 1.72799279e-03, 4.40049231e-01,
          4.40049231e-01, 7.85891805e-03, 2.26480812e-02, 3.91228162e-02,
          9.58226919e-02, 1.17430575e-02, 1.78404665e-03, 2.96174292e-03,
          9.00277048e-02, 2.76598215e-01, 2.31429785e-02, 8.52068365e-02,
          7.33117834e-02, 1.05395600e-01, 1.59816574e-02, 6.66812528e-04,
          1.74820513e-01, 7.87063465e-02, 1.09912846e-02, 1.10871252e-02,
          2.08972581e-02, 6.04136325e-02, 2.80618250e-01, 3.30235034e-01,
          2.32878074e-01, 2.80225039e-01, 1.42620057e-01, 8.17634314e-02,
          7.34329745e-02, 2.98702177e-02, 1.70071740e-02, 1.61814168e-02,
          8.00876915e-02, 2.23166436e-01, 1.09628201e-01, 7.85231218e-02,
          4.96188849e-02, 3.31182390e-01, 4.12844867e-01, 1.77944511e-01,
          1.92420363e-01, 8.82379189e-02, 5.73252290e-02, 2.10109219e-01,
          7.88626000e-02, 7.64548481e-02, 2.04151228e-01, 5.32668084e-02,
          2.44006123e-02, 1.36689907e-02, 9.33764502e-02, 2.29621664e-01,
          2.08491962e-02, 1.06569014e-01, 1.28564030e-01, 5.27292304e-03,
          7.02218199e-03, 9.95983258e-02, 3.58584136e-01, 8.48116577e-02,
          1.21450704e-02, 1.96375139e-03, 1.98394880e-01, 3.58584136e-01,
          8.19291733e-03, 1.39389420e-02, 4.83375341e-02, 3.58584136e-01,
          5.19729741e-02, 4.41271719e-03, 1.74994897e-02, 2.41735894e-02,
          2.18933020e-02, 1.03930337e-02, 2.40663122e-02, 3.58584136e-01,
          3.58584136e-01, 4.77469489e-02, 8.73456057e-03, 6.64667925e-04,
          1.95478693e-01, 3.58584136e-01, 5.35496026e-02, 4.34720628e-02,
          9.46534723e-02, 2.78638303e-01, 2.44393479e-02, 1.53138617e-03,
          9.38412617e-04, 3.62625748e-01, 4.05408382e-01, 5.76966535e-03,
          2.03745663e-02, 3.55156921e-02, 9.72547829e-02, 6.16483763e-03,
          2.18985067e-03, 1.05814626e-02, 7.28108138e-02, 2.11049750e-01,
          3.52541842e-02, 8.03313479e-02, 5.79680279e-02, 9.52701047e-02,
          3.61838425e-03, 8.71176089e-05, 1.60388220e-02, 3.64453733e-01,
          4.05408382e-01, 1.03651077e-01, 5.26755862e-02, 5.95415942e-02,
          9.98587832e-02, 1.78455357e-02, 4.52086795e-03, 1.02422334e-01,
          1.43341914e-01, 2.30500951e-01, 5.40332124e-02, 2.02547565e-01,
          3.94136071e-01, 1.00753024e-01, 1.86217222e-02, 3.94580560e-03,
          4.80598696e-02, 5.18078730e-02, 3.59798074e-02, 1.25388414e-01,
          1.01242706e-01, 2.66377721e-02, 1.59719884e-02, 2.00061873e-03,
          4.55233967e-03, 6.79323524e-02, 8.55591148e-02, 5.17820679e-02,
          8.33885521e-02, 3.18317115e-02, 4.47233999e-03, 1.25414450e-02,
          2.21631955e-02, 5.00937626e-02, 1.75543085e-01, 2.10455582e-01,
          3.14411581e-01, 1.45953551e-01, 3.54775250e-01, 3.54775250e-01,
          1.62523873e-02, 2.96618091e-03, 9.84648592e-04, 9.18785632e-02,
          2.62923419e-01, 3.54775250e-01, 1.74229696e-01, 3.54775250e-01,
          3.49759161e-01, 8.15161318e-02, 3.36076431e-02, 2.02999637e-02,
          3.76918423e-03, 3.66573129e-03, 3.46874120e-03, 3.20926346e-02,
          8.64107832e-02, 3.74141723e-01, 3.74141723e-01, 1.89759322e-02,
          9.61421290e-04, 5.53735474e-04, 1.58970654e-01, 3.74141723e-01,
          2.94911385e-01, 1.54317185e-01, 1.03099033e-01, 1.46552071e-01,
          8.75366852e-03, 2.18321662e-03, 2.08432946e-04, 4.32267087e-04,
          7.17079407e-03, 8.60702768e-02, 2.18368202e-01, 3.74141723e-01,
          2.14995474e-01, 1.67300241e-04, 0., 1.27785126e-04,
          1.86548978e-02, 1.73416406e-01, 2.92634964e-01, 2.01510161e-01,
          3.20301540e-02, 1.15062445e-02, 5.16591885e-04, 9.15748242e-04,
          1.43501135e-02, 1.31536409e-01, 3.14754695e-01, 3.14754695e-01,
          2.69892514e-01, 1.38940439e-01, 2.42765937e-02, 1.37036638e-02,
          7.95683824e-03, 6.02755882e-02, 7.04147890e-02, 1.13123424e-01,
          1.40004858e-01, 3.14754695e-01, 3.14754695e-01, 2.34521907e-02,
          1.45401713e-02, 7.33854296e-03, 2.13469192e-03, 1.55683095e-02,
          1.43244416e-01, 2.96833485e-01, 3.14395756e-01, 1.09399699e-01,
          5.02714829e-04, 2.16206000e-03, 3.36761214e-03, 8.49901140e-03,
          9.10227653e-03, 5.16140424e-02, 1.66089043e-01, 3.14754695e-01,
          3.14754695e-01, 3.35272460e-04, 2.06265389e-03, 4.24142135e-03,
          3.57018337e-02, 1.06364466e-01, 3.36312026e-01, 5.21150455e-02,
          3.41020912e-01, 3.51763248e-01, 2.47639441e-03, 1.13130419e-03,
          3.70687776e-04, 9.22052003e-03, 1.71473518e-01, 3.51763248e-01,
          5.49723394e-02, 1.47627354e-01, 1.66414365e-01, 4.59878668e-02,
          8.95327888e-03, 2.26677075e-04, 6.26576040e-03, 1.50235459e-01,
          3.51763248e-01, 4.88494597e-02, 1.45496547e-01, 1.90311641e-01,
          9.39297024e-05, 1.10972345e-04, 1.18346256e-03, 1.87214208e-03,
          2.92712718e-01, 3.51763248e-01, 1.70512311e-02, 2.91460324e-02,
          2.43114177e-02, 5.18430546e-02, 1.19100083e-02, 1.51604516e-04,
          1.86931249e-02, 2.51308456e-02, 4.19270843e-02, 2.21557766e-01,
          3.53100985e-01, 1.58342570e-01, 2.85878666e-02, 2.95209512e-03,
          1.33596705e-02, 7.91633036e-03, 6.01273030e-02, 1.37702137e-01,
          3.37183267e-01, 2.56086349e-01, 1.71154253e-02, 3.49931652e-04,
          0., 2.71039642e-03, 3.53100985e-01, 7.61587918e-02,
          3.74923721e-02, 5.37428223e-02, 4.98106629e-02, 4.95289511e-04,
          1.16369901e-02, 1.50218531e-02, 3.53100985e-01, 3.53100985e-01,
          2.21584290e-01, 1.30386338e-01, 1.23125739e-01, 4.00525853e-02,
          3.91667243e-03, 1.33451680e-02, 1.07343728e-02, 3.48604172e-01,
          3.33221769e-03, 5.57500198e-02, 2.03306064e-01, 3.17821890e-01,
          2.59463727e-01, 2.87478305e-02, 3.12257558e-04, 0.,
          1.80660922e-04, 4.30245027e-02, 4.91126627e-02, 2.47272432e-01,
          3.08716714e-01, 2.91185051e-01, 4.13270220e-02, 1.03855773e-03,
          1.36311539e-03, 1.38930809e-02, 3.14877957e-01, 2.25636184e-01,
          1.76665813e-01, 1.25965625e-01, 1.71784833e-02, 3.62990517e-03,
          1.38355354e-02, 1.02228131e-02, 2.52847672e-01, 3.29486102e-01,
          2.11834356e-01, 2.15270281e-01, 1.53617501e-01, 4.70377393e-02,
          1.20886276e-02, 2.08073165e-02, 1.04880016e-02, 2.18347952e-01,
          9.11136344e-03, 1.65016681e-01, 3.98785561e-01, 3.98099348e-02,
          2.86367498e-02, 3.18966433e-03, 1.54528039e-04, 4.35890019e-04,
          2.87981704e-03, 2.08204193e-03, 3.24268192e-01, 3.98785561e-01,
          1.09670563e-02, 8.28673411e-03, 1.69991399e-03, 5.44095822e-02,
          1.38431182e-02, 5.27832832e-04, 4.55659777e-02, 2.30777636e-01,
          3.98785561e-01, 1.99803486e-02, 1.06446920e-02, 6.42530806e-03,
          4.35381383e-03, 2.75682588e-03, 2.56192554e-02, 1.23367235e-02,
          3.98785561e-01, 3.98785561e-01, 4.66832565e-03, 4.89641819e-03,
          5.62974485e-03, 7.43245855e-02, 1.63546819e-02, 6.19754195e-03 ]
      - [ 1.67254508e-01, 4.77892952e-03, 3.10959537e-02, 3.55023309e-03,
          7.41778985e-02, 4.19375226e-02, 2.23360240e-01, 9.58204046e-02,
          1.08493209e-01, 5.08322939e-02, 1.51137978e-01, 3.74567360e-01,
          1.48714799e-02, 1.59716159e-02, 9.80076659e-03, 3.74567360e-01,
          2.58211851e-01, 5.26870526e-02, 4.45341633e-04, 9.49492492e-03,
          3.76420021e-02, 4.84817429e-03, 1.93503853e-02, 2.67730244e-02,
          2.66336769e-01, 1.04003564e-01, 8.99063190e-04, 1.84035653e-05,
          2.23760873e-01, 3.74567360e-01, 6.54000731e-04, 1.91876676e-03,
          8.00699182e-03, 3.74567360e-01, 3.13073426e-01, 3.71298112e-04,
          3.56571027e-03, 2.28901654e-01, 4.74405199e-01, 3.52278166e-02,
          3.00711044e-03, 2.46256095e-04, 3.09676617e-01, 1.27542377e-01,
          1.01986583e-02, 3.23817204e-03, 2.67418828e-02, 1.49497762e-01,
          2.43536979e-02, 7.24060321e-03, 6.65799063e-03, 6.60827849e-03,
          2.57966225e-03, 3.24543030e-03, 1.03581006e-05, 3.50557178e-01,
          4.74405199e-01, 6.54870272e-03, 1.94358974e-04, 4.02560399e-04,
          3.92875940e-01, 1.66038349e-01, 2.73294954e-05, 1.76715676e-03,
          5.09147607e-02, 2.18016148e-01, 1.45428078e-02, 6.17549615e-03,
          9.92081687e-03, 6.74880017e-03, 3.21266241e-03, 1.28320756e-03,
          8.22164640e-02, 9.23524871e-02, 1.50872067e-01, 1.04728170e-01,
          1.37997553e-01, 2.19342679e-01, 1.72432393e-01, 8.12469572e-02,
          1.05473377e-01, 8.52742046e-02, 4.53877077e-02, 3.69284898e-02,
          6.79530278e-02, 1.27488941e-01, 2.73315191e-01, 2.73732424e-01,
          1.58200279e-01, 1.11477122e-01, 4.93695401e-02, 1.36602849e-01,
          2.30306610e-01, 1.47187486e-01, 1.71014681e-01, 2.50496805e-01,
          2.19126970e-01, 1.00969382e-01, 4.85133007e-02, 6.34553060e-02,
          5.92759363e-02, 4.90005650e-02, 1.16480738e-01, 3.15812409e-01,
          3.37148249e-01, 2.77090669e-01, 1.93614662e-01, 9.69889387e-02,
          3.83128133e-03, 2.22532991e-02, 6.33341819e-02, 6.68128021e-03,
          2.51910966e-02, 1.52463475e-02, 2.34178737e-01, 9.75363627e-02,
          3.74936871e-03, 2.69281561e-04, 2.01669484e-01, 3.75344962e-01,
          1.96523708e-03, 2.26469245e-03, 6.01088069e-03, 3.75344962e-01,
          3.09538990e-01, 5.67431271e-04, 1.57070328e-02, 3.20834666e-02,
          6.99505731e-02, 4.85333055e-03, 1.24352174e-02, 1.06019536e-02,
          2.36999795e-01, 1.03348017e-01, 1.31791933e-02, 1.57813972e-03,
          1.94845155e-01, 3.75344962e-01, 2.21072789e-03, 9.01207270e-04,
          3.93677223e-03, 3.75344962e-01, 3.38986248e-01, 1.06102438e-03,
          1.98955822e-05, 2.87812740e-01, 4.60684627e-01, 7.31715886e-03,
          3.64043372e-04, 3.22971842e-04, 3.10623944e-01, 1.46220610e-01,
          9.36584111e-05, 9.57709621e-04, 5.03463745e-02, 2.02576235e-01,
          1.45634003e-02, 6.21889671e-03, 5.10957604e-03, 5.19133219e-03,
          4.72723134e-03, 2.05270364e-03, 1.30123939e-04, 3.22090566e-01,
          4.60684627e-01, 5.59158204e-03, 1.36498944e-04, 3.00033018e-04,
          3.43560517e-01, 1.65167972e-01, 9.30921524e-05, 1.85235206e-03,
          7.44670108e-02, 2.67170161e-01, 1.13365147e-02, 3.39893065e-03,
          4.19372367e-03, 6.69409754e-03, 6.57204026e-03, 3.81775876e-03,
          1.78969260e-02, 9.31330323e-02, 1.89311147e-01, 1.08551793e-01,
          1.50504768e-01, 1.49941862e-01, 1.89669937e-01, 1.33264467e-01,
          4.87043671e-02, 2.52682436e-02, 3.31684649e-02, 6.83148950e-02,
          6.67439476e-02, 2.79373407e-01, 2.73195952e-01, 2.45886728e-01,
          2.24120766e-01, 9.38428640e-02, 4.80008125e-02, 1.29364893e-01,
          2.77563959e-01, 5.18781468e-02, 1.07354566e-01, 1.19882151e-01,
          1.87059686e-01, 2.43850186e-01, 1.02684811e-01, 8.41099024e-02,
          3.87144610e-02, 6.16481081e-02, 1.52817564e-02, 1.46544263e-01,
          1.74815163e-01, 2.49338999e-01, 3.71995270e-01, 2.36625940e-01,
          1.03649553e-02, 1.20859938e-02, 1.96714699e-02, 3.75506515e-03,
          2.08277837e-03, 6.56104879e-03, 2.02849805e-01, 9.30666924e-02,
          9.91492439e-03, 1.61307282e-03, 1.54662907e-01, 3.83881569e-01,
          1.80810725e-03, 2.13635707e-04, 3.24959145e-03, 3.83881569e-01,
          3.23987156e-01, 1.50419329e-03, 7.74362963e-03, 6.65919622e-03,
          1.81028910e-03, 4.56842361e-03, 3.25256377e-03, 6.56740414e-03,
          2.11208284e-01, 1.02174893e-01, 9.09682363e-03, 3.81002016e-03,
          1.56386212e-01, 3.83881569e-01, 1.35642756e-03, 3.18815961e-04,
          3.87612102e-03, 3.83881569e-01, 3.83881569e-01, 4.59344732e-03,
          1.01218728e-04, 2.34829813e-01, 4.28297669e-01, 4.45518224e-03,
          0., 1.73654538e-04, 3.03055137e-01, 1.40265420e-01,
          9.31095274e-05, 1.69259345e-03, 5.83443902e-02, 2.35935956e-01,
          8.89097713e-03, 1.14184630e-03, 4.26460337e-03, 4.43782052e-03,
          2.35781586e-03, 1.65331387e-03, 2.44359253e-04, 2.69231915e-01,
          4.28297669e-01, 5.01012756e-03, 3.49098809e-05, 3.09034367e-04,
          4.28297669e-01, 1.98875919e-01, 3.16774589e-04, 1.81385851e-03,
          7.37255663e-02, 3.19106489e-01, 1.20807700e-02, 1.94839353e-03,
          3.75175267e-03, 4.47650952e-03, 1.66076119e-03, 2.62926379e-03,
          7.56970122e-02, 1.19306713e-01, 2.97985941e-01, 5.62063120e-02,
          8.97690281e-02, 1.81799337e-01, 1.69438213e-01, 1.36399224e-01,
          6.47045523e-02, 1.14804573e-01, 4.23071459e-02, 4.33927998e-02,
          5.14424704e-02, 9.77310836e-02, 2.19888180e-01, 2.10843235e-01,
          2.35312015e-01, 2.09003344e-01, 1.40507475e-01, 1.40719905e-01,
          3.81459087e-01, 1.06418408e-01, 1.14884958e-01, 1.74063772e-01,
          1.83337495e-01, 8.97554904e-02, 1.27330184e-01, 2.11159036e-01,
          8.05138275e-02, 4.07240167e-02, 7.22994208e-02, 1.20603278e-01,
          2.56628305e-01, 2.65197515e-01, 1.90416962e-01, 1.52374938e-01,
          1.13204941e-02, 1.10539738e-02, 1.96842244e-03, 4.96332068e-03,
          5.30045992e-03, 8.32287315e-03, 1.61885366e-01, 7.30935708e-02,
          7.59344921e-03, 5.29519841e-03, 1.52969420e-01, 3.85647029e-01,
          1.47469959e-03, 1.53337244e-03, 5.29777817e-03, 3.85647029e-01,
          3.52890104e-01, 4.07211715e-03, 1.91252977e-02, 1.44676473e-02,
          5.33841271e-03, 2.79526506e-03, 4.73750755e-03, 1.11228134e-02,
          1.68241411e-01, 7.19687343e-02, 5.23315975e-03, 1.20841768e-02,
          1.95112675e-01, 3.85647029e-01, 1.41462637e-03, 1.73528201e-03,
          6.50521601e-03, 3.85647029e-01, 3.85647029e-01, 2.32982822e-03,
          2.86713912e-04, 2.24363521e-01, 3.90399784e-01, 2.65176315e-03,
          7.81761555e-05, 5.35674917e-04, 3.90399784e-01, 1.64299339e-01,
          1.92858148e-04, 1.17146352e-03, 5.80683164e-02, 2.57099181e-01,
          9.82424617e-03, 4.30068141e-03, 1.86245504e-03, 1.51684391e-03,
          1.04937062e-03, 1.68971973e-03, 9.44944331e-04, 2.86983788e-01,
          3.90399784e-01, 1.42231188e-03, 3.55346165e-05, 5.79067913e-04,
          3.90399784e-01, 2.12383106e-01, 1.38460469e-04, 1.93433906e-03,
          8.38010982e-02, 3.23972493e-01, 5.78155648e-03, 4.44325386e-03,
          1.29366328e-03, 1.57175318e-03, 9.28627909e-04, 9.15146724e-04,
          8.15776810e-02, 1.00990824e-01, 3.45995128e-01, 1.20584786e-01,
          1.63851768e-01, 1.10315688e-01, 6.63570315e-02, 6.05292991e-02,
          9.11820680e-02, 9.83532146e-02, 4.80480306e-02, 7.57860243e-02,
          5.74620180e-02, 1.29234493e-01, 2.49383956e-01, 1.75244674e-01,
          1.14549838e-01, 8.73723030e-02, 7.01230913e-02, 1.83547318e-01,
          4.19089437e-01, 6.82515129e-02, 1.81052178e-01, 1.31335884e-01,
          9.59000587e-02, 6.68494776e-02, 6.09290004e-02, 5.77119254e-02,
          4.97239530e-02, 8.23699981e-02, 2.59722248e-02, 2.18369350e-01,
          4.47313368e-01, 2.63988256e-01, 1.11617707e-01, 7.03621358e-02,
          2.57427432e-02, 1.76072866e-02, 4.86614369e-03, 2.80797860e-04,
          2.53989710e-03, 6.13107858e-03, 1.26407191e-01, 5.67107163e-02,
          6.53532054e-03, 1.28816077e-02, 1.64029479e-01, 3.41382235e-01,
          1.42514618e-04, 7.60622963e-04, 4.19277372e-03, 3.41382235e-01,
          3.41382235e-01, 2.91377306e-03, 5.18966988e-02, 1.42368264e-02,
          3.78009118e-03, 1.49388320e-03, 3.41382235e-01, 3.98064964e-02,
          1.05493046e-01, 4.44900766e-02, 3.58823352e-02, 4.92147431e-02,
          1.62966534e-01, 3.41382235e-01, 7.32623041e-04, 2.77788401e-01,
          8.49311352e-02, 3.41382235e-01, 3.41382235e-01, 3.41584533e-02,
          8.15763313e-04, 2.48883396e-01, 3.63718957e-01, 3.35482415e-04,
          0., 6.30736817e-04, 3.63718957e-01, 1.98766515e-01,
          3.52303905e-04, 1.10808981e-03, 8.51424411e-02, 3.00211012e-01,
          1.78343663e-03, 2.31648213e-03, 1.07845315e-03, 4.08514449e-03,
          2.08113459e-03, 7.34438305e-04, 2.21621562e-02, 2.94814736e-01,
          3.63718957e-01, 2.31430997e-04, 5.00898212e-02, 3.37021612e-02,
          3.63718957e-01, 1.91386253e-01, 8.91162362e-03, 2.08302098e-03,
          1.24733791e-01, 3.53491008e-01, 2.33739335e-03, 2.62143230e-03,
          1.87718880e-03, 5.31588029e-03, 3.68522434e-03, 1.71780854e-03,
          2.80599464e-02, 1.50789067e-01, 2.98275113e-01, 1.31817088e-02,
          1.39811382e-01, 1.12501703e-01, 1.44990727e-01, 1.04639620e-01,
          4.22298536e-02, 2.65390314e-02, 2.32932717e-02, 2.72384211e-02,
          4.61130403e-03, 2.36996308e-01, 3.97764385e-01, 2.30707020e-01,
          1.25877112e-01, 5.22705130e-02, 2.46489719e-02, 1.86045334e-01,
          2.89672285e-01, 2.04181392e-02, 9.58287716e-02, 1.21087506e-01,
          2.03775853e-01, 2.22829282e-01, 7.55783319e-02, 2.24493090e-02,
          6.70126360e-03, 1.69317536e-02, 1.96414609e-02, 1.11555822e-01,
          2.60392964e-01, 3.08331460e-01, 3.16414505e-01, 9.70749184e-02,
          2.84085691e-01, 2.93874182e-03, 1.28127297e-03, 1.40585564e-03,
          2.84085691e-01, 5.17029390e-02, 2.86777280e-02, 1.08812889e-02,
          2.45876908e-01, 2.84085691e-01, 1.35772511e-01, 2.15591237e-01,
          5.65719209e-04, 2.84085691e-01, 1.09832890e-01, 2.25628957e-01,
          8.83913860e-02, 2.23938718e-01, 2.84085691e-01, 9.30928160e-03,
          4.23763035e-04, 2.15506181e-04, 2.15477809e-01, 1.82356853e-02,
          1.28888176e-03, 3.86545580e-04, 2.84085691e-01, 2.84085691e-01,
          1.80319756e-01, 4.42838632e-02, 4.58334507e-05, 1.54568091e-01,
          3.23066749e-02, 1.61559787e-02, 2.81000743e-03, 2.75258750e-01,
          3.45384002e-01, 3.45384002e-01, 3.45384002e-01, 3.67508619e-04,
          1.75471932e-01, 9.27840248e-02, 2.64070868e-01, 1.07987337e-01,
          1.31221592e-01, 3.41908708e-02, 2.25851640e-01, 3.32785577e-01,
          3.87396268e-03, 8.12285021e-03, 3.57099180e-03, 6.34886371e-03,
          4.43077832e-03, 2.69437535e-03, 3.45384002e-01, 3.45384002e-01,
          1.92652926e-01, 8.24670773e-04, 6.78103939e-02, 2.73709130e-02,
          2.25718264e-02, 5.80263184e-03, 1.55395627e-01, 5.21877743e-02,
          1.51034385e-01, 7.61817917e-02, 3.05515411e-03, 1.00458432e-02,
          3.41908028e-03, 1.29492683e-02, 1.26530658e-02, 7.60058407e-03,
          2.96864621e-02, 2.11814895e-01, 1.91763505e-01, 3.36614549e-02,
          1.59661263e-01, 1.67517051e-01, 2.26395741e-01, 1.71245813e-01,
          5.06495088e-02, 2.52506025e-02, 8.34170543e-03, 1.13796424e-02,
          1.64164901e-02, 9.75436196e-02, 1.83148846e-01, 3.84206146e-01,
          2.83269078e-01, 8.18432793e-02, 3.92908975e-02, 1.02186017e-01,
          4.41483594e-02, 1.99379902e-02, 1.75354093e-01, 1.63501590e-01,
          2.86161631e-01, 1.86326683e-01, 4.59347442e-02, 1.36849163e-02,
          4.98104142e-03, 4.84865857e-03, 8.32816772e-03, 1.57755703e-01,
          3.23563606e-01, 3.82613242e-01, 1.55929714e-01, 3.78945582e-02,
          3.76384228e-01, 1.23162158e-01, 6.15893025e-03, 0., 0.,
          1.88023150e-05, 2.68017948e-06, 2.22455966e-03, 3.76384228e-01,
          3.76384228e-01, 3.76384228e-01, 4.73324917e-02, 1.69773027e-03,
          1.04225555e-03, 5.73706767e-03, 5.47386124e-04, 1.50468200e-03,
          2.17274636e-01, 3.76384228e-01, 1.48372576e-01, 4.19434160e-03,
          0., 0., 2.16666143e-03, 4.52226819e-03, 7.14229932e-03,
          1.69646531e-01, 2.74033934e-01, 3.04944962e-01, 3.93029675e-02,
          7.43727246e-03, 4.31147637e-03, 1.55991688e-02, 7.58596696e-03,
          8.16680584e-03, 4.74779978e-02, 5.83127856e-01, 5.83127856e-01,
          1.01124614e-01, 1.35867847e-02, 1.61512680e-02, 4.13730592e-02,
          1.51731046e-02, 1.90115273e-02, 1.44722298e-01, 9.88548398e-02,
          1.78072616e-01, 2.93699708e-02, 1.92552395e-02, 3.69608402e-02,
          6.01032153e-02, 1.12651557e-01, 7.66630247e-02, 4.13064137e-02,
          1.40186906e-01, 3.23329270e-01, 8.38949531e-02, 3.80796976e-02,
          5.32096811e-02, 5.07254601e-02, 5.59864827e-02, 3.57581601e-02,
          3.17247137e-02, 2.48541329e-02, 2.60260738e-02, 1.76657848e-02,
          1.91228259e-02, 9.10209417e-02, 1.29652128e-01, 1.91003054e-01,
          6.86648190e-02, 2.10423823e-02, 2.04206668e-02, 2.29522698e-02,
          1.04450136e-02, 7.86340795e-03, 7.69655332e-02, 1.80788279e-01,
          3.16676676e-01, 1.59562409e-01, 2.85084825e-02, 3.10212583e-03,
          0., 0., 8.94143188e-04, 1.32796451e-01, 3.07359427e-01,
          3.16164076e-01, 1.28799528e-01, 2.42744070e-02, 4.24700649e-03,
          5.36219543e-03, 5.66463638e-03, 2.68970197e-03, 9.23071578e-02,
          2.91713744e-01, 4.27327782e-01, 1.38388976e-01, 1.30380588e-02,
          4.32754587e-03, 7.68838741e-04, 2.30651628e-03, 0.,
          1.16794154e-01, 2.62721241e-01, 4.28031653e-01, 1.84216902e-01,
          3.61060314e-02 ]
      - [ 1.82758883e-01, 9.92475227e-02, 1.55479953e-01, 3.77249904e-02,
          1.02976352e-01, 1.41600206e-01, 2.60348856e-01, 5.31552136e-02,
          1.77666590e-01, 2.50705332e-01, 8.37961733e-02, 1.10789388e-01,
          2.60348856e-01, 2.10501790e-01, 1.33378118e-01, 1.74885496e-01,
          7.00240508e-02, 2.60348856e-01, 3.17932852e-02, 1.82067677e-01,
          2.60348856e-01, 3.37855220e-02, 3.66681851e-02, 5.44635057e-02,
          2.60348856e-01, 1.33942693e-01, 3.92075032e-02, 6.21688180e-02,
          2.08580330e-01, 2.60348856e-01, 1.22027360e-01, 3.60464118e-02,
          3.10964677e-02, 2.60348856e-01, 1.49744183e-01, 2.51505077e-01,
          1.96681812e-01, 2.45859046e-02, 2.99769342e-02, 2.64883339e-01,
          1.81902140e-01, 2.99449675e-02, 7.39271715e-02, 1.03617392e-01,
          2.64883339e-01, 8.60971659e-02, 1.25821829e-01, 2.64883339e-01,
          1.90184787e-01, 1.17969029e-01, 3.83873433e-02, 2.64883339e-01,
          1.74275145e-01, 1.77707717e-01, 5.40519878e-02, 6.31344691e-02,
          1.55647695e-01, 2.64883339e-01, 8.77145529e-02, 1.64675303e-02,
          3.39103527e-02, 1.80584967e-01, 2.64883339e-01, 7.10477605e-02,
          1.56535491e-01, 2.64883339e-01, 1.79881662e-01, 1.13754675e-01,
          4.62244824e-02, 1.27283603e-01, 2.07053810e-01, 2.64883339e-01,
          4.21493575e-02, 3.88279289e-01, 3.88279289e-01, 4.89347428e-02,
          5.66884056e-02, 3.28660458e-02, 3.13153386e-01, 1.62047014e-01,
          5.62106781e-02, 3.03425360e-02, 1.09183632e-01, 1.73135504e-01,
          5.40405279e-03, 1.03594735e-03, 3.73018067e-03, 5.25711244e-03,
          5.67146484e-03, 8.37381277e-03, 1.22962758e-01, 3.88279289e-01,
          3.88279289e-01, 4.76362854e-02, 7.23160207e-02, 5.44801615e-02,
          1.49041504e-01, 1.45887345e-01, 3.33919972e-01, 1.58229265e-02,
          8.56774151e-02, 1.58860072e-01, 1.40836583e-02, 9.09540709e-03,
          1.52711235e-02, 1.14844944e-02, 5.55058010e-03, 6.84770942e-03,
          3.17047164e-02, 2.02256665e-01, 3.03427428e-01, 2.97273435e-02,
          3.66691761e-02, 9.93738510e-03, 3.03427428e-01, 1.47822097e-01,
          2.58227754e-02, 1.23505434e-02, 2.29184687e-01, 3.03427428e-01,
          2.58466341e-02, 1.05407659e-03, 1.04865001e-04, 2.83509731e-01,
          1.03666253e-01, 5.73782697e-02, 3.55380438e-02, 1.84012383e-01,
          3.03427428e-01, 6.69869184e-02, 3.22569460e-02, 1.15370294e-02,
          3.03427428e-01, 1.75561041e-01, 1.85931046e-02, 2.90010986e-03,
          2.36908764e-01, 3.03427428e-01, 6.66349381e-03, 7.32591050e-03,
          3.08545632e-03, 3.03427428e-01, 9.86854658e-02, 5.99961169e-03,
          5.68616539e-02, 1.86234459e-01, 3.42260748e-01, 2.01763839e-01,
          4.05357182e-02, 3.90181015e-03, 7.14426907e-03, 1.78787440e-01,
          3.42260748e-01, 1.78286090e-01, 2.01315984e-01, 2.95708477e-01,
          2.14778885e-01, 1.43631056e-01, 5.04763126e-02, 2.42276359e-02,
          3.08893144e-01, 3.42260748e-01, 1.19246533e-02, 1.75980285e-01,
          3.42260748e-01, 6.40107244e-02, 7.40461349e-02, 1.13364253e-02,
          5.88335097e-03, 2.72315159e-03, 2.15443987e-02, 2.28432436e-02,
          1.13489693e-02, 2.57699452e-02, 1.07663341e-01, 1.71274483e-01,
          4.66598682e-02, 6.48339605e-03, 1.34974923e-02, 6.83772489e-02,
          3.04262787e-01, 4.03630018e-01, 4.03630018e-01, 1.21196255e-01,
          2.26238489e-01, 1.40414000e-01, 7.75264353e-02, 2.39294469e-01,
          4.03630018e-01, 1.80213097e-02, 9.46733579e-02, 1.97220415e-01,
          6.63552210e-02, 7.46444613e-02, 4.74906303e-02, 2.95318719e-02,
          8.97550210e-03, 1.24589009e-02, 4.02385294e-02, 2.94201132e-02,
          1.10898055e-01, 1.46000162e-01, 2.54978806e-01, 1.16990939e-01,
          2.74102837e-02, 2.43638307e-02, 9.99017209e-02, 9.49028786e-03,
          7.05022141e-02, 2.38370761e-01, 1.08954668e-01, 6.12065233e-02,
          2.33909767e-02, 8.12988263e-03, 1.36618852e-03, 4.33774153e-03,
          1.21883890e-02, 1.68613270e-01, 3.07203859e-01, 4.03158292e-02,
          2.52287984e-02, 1.69746559e-02, 3.07203859e-01, 1.68245688e-01,
          2.27922723e-02, 9.78871394e-05, 1.83778822e-01, 3.07203859e-01,
          2.56783073e-03, 2.11871564e-02, 1.45702772e-02, 2.80004859e-01,
          8.70555267e-02, 4.22284153e-04, 1.75328925e-02, 2.23613963e-01,
          3.07203859e-01, 4.11110558e-02, 3.49779874e-02, 3.50174606e-02,
          3.07203859e-01, 2.08337873e-01, 2.62305196e-02, 2.40418245e-03,
          1.75194547e-01, 3.07203859e-01, 6.02722261e-03, 7.71871433e-02,
          1.03968285e-01, 3.07203859e-01, 9.94277373e-02, 4.28091356e-04,
          3.05124500e-04, 1.12486877e-01, 3.43574405e-01, 2.12828089e-02,
          1.43904239e-01, 4.92906608e-02, 2.62415758e-03, 1.27209292e-04,
          7.93392828e-04, 1.19228542e-04, 5.20780589e-03, 2.77028326e-02,
          7.07764626e-02, 2.19108269e-01, 4.81303148e-02, 1.12344732e-03,
          3.74482450e-04, 4.62870157e-05, 6.06908090e-02, 1.09427921e-01,
          3.43574405e-01, 2.75624469e-02, 3.43574405e-01, 3.43574405e-01,
          3.00870393e-03, 3.34523758e-03, 2.80208718e-02, 8.13353360e-02,
          1.75996855e-01, 3.43574405e-01, 1.36310264e-01, 3.43574405e-01,
          3.43574405e-01, 1.05640534e-02, 1.47227226e-02, 6.44928738e-02,
          6.07112190e-04, 4.69388291e-02, 1.51580006e-01, 1.21620193e-01,
          1.94386467e-01, 4.04213108e-02, 2.39558867e-03, 7.98529538e-04,
          0., 4.96205548e-03, 9.71574336e-02, 2.26552367e-01,
          5.75303733e-02, 1.12672942e-02, 7.18160358e-04, 1.59705931e-04,
          5.32353079e-05, 1.60681107e-03, 4.67314944e-02, 3.97866696e-01,
          3.97866696e-01, 2.06510812e-01, 3.97866696e-01, 3.77462298e-01,
          8.38792045e-03, 1.25939259e-02, 3.79316285e-02, 3.02838925e-02,
          2.82935172e-01, 3.26745510e-01, 2.44007036e-02, 1.37116434e-02,
          0., 1.06470616e-05, 5.35043655e-04, 3.45315668e-03,
          3.47425863e-02, 1.73378363e-01, 2.57007718e-01, 5.01479432e-02,
          4.93075922e-02, 3.78260873e-02, 2.57007718e-01, 2.21506014e-01,
          5.64100742e-02, 1.49357632e-01, 1.56561449e-01, 2.57007718e-01,
          2.85658259e-02, 1.49455279e-01, 2.36417115e-01, 2.55868673e-01,
          1.35839000e-01, 4.10832800e-02, 1.16645575e-01, 2.19038218e-01,
          1.84761807e-01, 7.76803493e-02, 1.32724300e-01, 9.38019380e-02,
          2.09769160e-01, 2.18680888e-01, 1.70917198e-01, 2.57007718e-01,
          2.11612806e-01, 1.43178210e-01, 5.12235500e-02, 1.25940546e-01,
          1.45368114e-01, 1.02906466e-01, 1.68056875e-01, 1.97277382e-01,
          2.77990699e-01, 1.26542076e-01, 1.06529847e-01, 1.27801318e-02,
          1.95613861e-01, 2.77990699e-01, 4.16929610e-02, 2.55800579e-02,
          5.51100299e-02, 1.93437621e-01, 2.00788736e-01, 2.77990699e-01,
          2.44101826e-02, 1.80527687e-01, 2.75980353e-01, 1.35704294e-01,
          7.62765259e-02, 9.13917273e-02, 2.77990699e-01, 1.81498736e-01,
          5.03825247e-02, 3.12891118e-02, 8.27785730e-02, 1.35323733e-01,
          1.72810405e-01, 6.91937506e-02, 7.84139186e-02, 1.89021945e-01,
          2.52383590e-01, 2.77990699e-01, 1.38334511e-02, 2.53155548e-02,
          3.41036133e-02, 2.77990699e-01, 1.88102514e-01, 5.85598983e-02,
          5.75977862e-02, 4.02483553e-01, 4.02483553e-01, 4.10856456e-02,
          1.35329932e-01, 1.25095904e-01, 1.06053129e-01, 6.09295405e-02,
          5.72636612e-02, 2.03330070e-02, 1.25842333e-01, 1.73332572e-01,
          5.64772822e-03, 2.33138516e-03, 0., 0., 1.18367339e-03,
          2.79050786e-03, 3.41912843e-02, 4.02483553e-01, 4.02483553e-01,
          3.14140110e-03, 4.37804544e-03, 4.18605376e-03, 4.02483553e-01,
          1.40191987e-01, 3.37221026e-02, 6.54246798e-03, 1.10942163e-01,
          2.19300583e-01, 3.07936175e-03, 4.84390272e-04, 0., 0.,
          1.30326778e-03, 2.13841046e-03, 2.92172492e-01, 2.92172492e-01,
          1.80842236e-01, 1.32056817e-01, 2.21786812e-01, 1.84514403e-01,
          9.31557044e-02, 1.52025253e-01, 2.92172492e-01, 2.92172492e-01,
          2.85970747e-01, 1.66221872e-01, 8.84259939e-02, 6.37106001e-02,
          3.81568819e-02, 2.42033228e-02, 1.03592612e-01, 2.41278470e-01,
          2.42785618e-01, 2.48546138e-01, 1.72084615e-01, 6.82151169e-02,
          2.92172492e-01, 2.13000085e-02, 1.64625775e-02, 3.42854597e-02,
          1.07612655e-01, 3.81384082e-02, 1.06240451e-01, 1.61287650e-01,
          5.99328876e-02, 4.44720276e-02, 1.46441581e-03, 1.76021911e-03,
          9.79874167e-04, 3.90786212e-03, 1.48548946e-01, 5.77924736e-02,
          6.08630441e-02, 4.12371270e-02, 1.74293295e-02, 4.11807094e-03,
          2.56222367e-01, 7.87360072e-02, 3.02436929e-02, 2.60666404e-02,
          2.30588496e-01, 3.64554197e-01, 1.99987125e-02, 6.97092433e-03,
          1.04681123e-03, 3.64554197e-01, 2.24913493e-01, 2.22987868e-03,
          2.30834563e-03, 2.02746056e-02, 8.06616619e-02, 2.43723206e-02,
          6.83865231e-03, 3.10592353e-04, 2.98601508e-01, 9.12762955e-02,
          1.18610915e-03, 3.18540318e-04, 2.75850415e-01, 3.64554197e-01,
          8.84545222e-03, 4.21980349e-03, 2.41571834e-04, 3.64554197e-01,
          2.73353636e-01, 3.86616332e-04, 1.23665889e-03, 3.64072233e-01,
          3.89380068e-01, 2.97959731e-03, 3.91155918e-04, 0.,
          3.87217730e-01, 1.08909570e-01, 5.11273858e-04, 8.50324170e-04,
          7.92393908e-02, 1.69458210e-01, 3.23467585e-03, 1.08711640e-04,
          0., 0., 2.17839479e-04, 4.20219410e-04, 1.51902816e-04,
          3.89380068e-01, 3.89380068e-01, 2.75973091e-03, 5.59739556e-06,
          0., 3.89380068e-01, 1.32885382e-01, 0., 1.54640561e-03,
          8.56902450e-02, 1.87546819e-01, 9.62593220e-03, 3.07360955e-04,
          0., 1.60555719e-04, 5.35185718e-05, 8.82476888e-05,
          2.96427011e-01, 3.34985554e-01, 3.15385610e-01, 1.31276265e-01,
          3.34985554e-01, 6.61728159e-02, 4.73692007e-02, 5.27406186e-02,
          6.40852898e-02, 6.26335070e-02, 1.36251837e-01, 1.85106665e-01,
          5.17214015e-02, 5.90875559e-02, 1.89324038e-03, 2.33212975e-03,
          4.16575652e-03, 5.29815862e-03, 2.70983219e-01, 3.34985554e-01,
          3.34985554e-01, 2.29720816e-01, 1.75216615e-01, 1.27013221e-01,
          6.71911985e-02, 9.81614068e-02, 1.41068950e-01, 1.09614454e-01,
          1.70356899e-01, 1.31013066e-01, 2.86303516e-02, 1.07616633e-02,
          4.68419958e-03, 3.62409023e-03, 9.50839743e-03, 1.96812917e-02,
          5.18556312e-03, 2.88030021e-02, 6.72503263e-02, 6.80737384e-03,
          3.49072390e-03, 0., 2.56835818e-01, 8.30777884e-02,
          8.81886866e-04, 1.53044972e-03, 2.53630221e-01, 3.61629486e-01,
          1.22460374e-03, 1.90358434e-03, 0., 3.61629486e-01,
          2.46993989e-01, 4.74023080e-04, 2.57535595e-02, 5.47014475e-02,
          6.17278330e-02, 2.91909883e-03, 5.99110033e-04, 0.,
          2.97077954e-01, 9.57657844e-02, 6.56480994e-03, 7.81216985e-03,
          2.92780697e-01, 3.61629486e-01, 5.80464221e-05, 1.19409655e-04,
          0., 3.61629486e-01, 2.80884951e-01, 3.79027007e-03,
          1.78041344e-03, 3.83555949e-01, 3.86192828e-01, 2.19210982e-03,
          0., 0., 3.83024007e-01, 1.22371837e-01, 3.88085464e-04,
          4.60624276e-03, 8.64041820e-02, 1.55295745e-01, 7.09645310e-03,
          2.66713789e-04, 0., 2.69047887e-04, 8.96826314e-05,
          6.02184620e-04, 1.04056122e-02, 3.86192828e-01, 3.86192828e-01,
          1.87391171e-03, 0., 0., 3.86192828e-01, 1.38128743e-01,
          7.53251428e-04, 2.43170559e-02, 1.43454522e-01, 1.36843383e-01,
          3.36665753e-03, 4.86917270e-04, 0., 1.45433252e-04,
          4.84777520e-05, 1.39850669e-03, 1.00435264e-01, 2.87130326e-01,
          3.86337608e-01, 9.26368758e-02, 6.12526797e-02, 7.46083856e-02,
          3.70730795e-02, 7.38678202e-02, 1.08758025e-01, 8.43575969e-02,
          1.12287104e-01, 5.86770996e-02, 8.11142009e-03, 2.08165823e-03,
          1.25804869e-03, 2.73911026e-03, 1.29196979e-02, 3.21400203e-02,
          2.19440252e-01, 3.13174993e-01, 3.54561925e-01, 5.98616786e-02,
          3.86337608e-01, 4.08276021e-02, 2.23429333e-02, 5.36572933e-02,
          1.79517582e-01, 2.23090276e-01, 7.11199939e-02, 3.31142768e-02,
          1.58724915e-02, 3.86337608e-01, 4.63759666e-03, 3.24168894e-03,
          1.69788804e-02, 1.59797728e-01, 2.86372732e-02, 5.77253662e-02,
          4.31254692e-02, 2.09704018e-03, 1.00705400e-03, 0.,
          2.41698787e-01, 8.07163268e-02, 1.06724063e-02, 1.03410762e-02,
          2.51662523e-01, 3.31828207e-01, 2.44294089e-04, 2.30034420e-04,
          0., 3.31828207e-01, 2.34696090e-01, 5.36773400e-03,
          7.53019080e-02, 5.16697653e-02, 3.42903584e-02, 3.63110867e-03,
          3.31828207e-01, 3.70309614e-02, 2.31706172e-01, 7.24299327e-02,
          4.14020158e-02, 3.01703792e-02, 3.10336858e-01, 3.31828207e-01,
          1.31606671e-03, 1.89426258e-01, 7.05223307e-02, 3.31828207e-01,
          2.16276690e-01, 1.08140605e-02, 2.34473385e-02, 3.89860421e-01,
          3.89860421e-01, 6.17614540e-04, 1.07166285e-04, 4.84010234e-04,
          3.89860421e-01, 1.29187748e-01, 1.23838719e-03, 3.54589894e-02,
          1.32965013e-01, 9.99709368e-02, 1.59138767e-03, 1.95331825e-03,
          2.10008444e-03, 1.11766788e-03, 4.62637807e-04, 3.48592550e-03,
          3.61421853e-02, 3.89860421e-01, 3.89860421e-01, 6.42573723e-05,
          2.64756139e-02, 3.17932144e-02, 3.89860421e-01, 1.23473138e-01,
          4.07437142e-03, 3.18333954e-02, 9.40750688e-02, 9.69288647e-02,
          1.80808222e-03, 3.60184023e-03, 9.64633096e-03, 1.36257894e-02,
          5.31543978e-03, 9.97085869e-03 ]
      - [ 2.14677438e-01, 4.22316371e-03, 1.80200674e-02, 4.43827361e-03,
          1.11846946e-01, 3.89523730e-02, 2.07975075e-01, 9.26362574e-02,
          1.32308692e-01, 7.23934993e-02, 1.42565548e-01, 3.69268596e-01,
          1.50885545e-02, 3.80927585e-02, 9.76467039e-03, 3.69268596e-01,
          2.92570084e-01, 6.56776950e-02, 1.08403550e-03, 6.30992465e-03,
          2.05497481e-02, 6.65046182e-03, 2.82608382e-02, 2.41106842e-02,
          2.33331025e-01, 9.57835540e-02, 2.88628245e-04, 1.34564063e-04,
          1.72165230e-01, 3.69268596e-01, 1.61814736e-03, 3.35550285e-03,
          8.92836973e-03, 3.69268596e-01, 3.29494566e-01, 0.,
          5.83574641e-03, 2.11893648e-01, 4.76196855e-01, 3.64242271e-02,
          6.90479996e-03, 6.69415633e-04, 2.85991460e-01, 1.41027749e-01,
          1.22013940e-02, 1.18886179e-03, 3.44280563e-02, 2.05867648e-01,
          3.24755535e-02, 4.46945056e-03, 1.96695048e-03, 4.17736638e-03,
          4.05631913e-03, 2.13928032e-03, 8.64501926e-05, 3.09967011e-01,
          4.76196855e-01, 5.67365205e-03, 5.38821041e-04, 4.60430922e-04,
          3.58899772e-01, 1.68938681e-01, 0., 2.10023951e-03,
          7.05364197e-02, 3.00339013e-01, 1.17233079e-02, 4.94808238e-03,
          2.57841987e-03, 6.68284111e-03, 5.27343759e-03, 3.02142277e-03,
          3.93218249e-02, 5.36189415e-02, 2.07072288e-01, 1.66556075e-01,
          1.13806970e-01, 8.97432715e-02, 1.57496333e-01, 1.43493205e-01,
          9.82802883e-02, 1.27810240e-01, 1.84339434e-02, 5.66385947e-02,
          1.32376730e-01, 1.87375188e-01, 2.08945155e-01, 2.20044464e-01,
          1.21572420e-01, 2.21471652e-01, 5.69259226e-02, 8.14034641e-02,
          2.86627531e-01, 1.67033717e-01, 1.63322791e-01, 1.42813176e-01,
          1.71509936e-01, 1.59784168e-01, 1.36557028e-01, 6.43118843e-02,
          1.23115527e-02, 5.02206683e-02, 2.20697224e-01, 2.71638066e-01,
          3.52194250e-01, 2.55300403e-01, 1.40435457e-01, 1.82026878e-01,
          3.98962479e-03, 2.48639286e-02, 5.21429628e-02, 1.16290636e-02,
          2.97398940e-02, 1.32671036e-02, 1.89038590e-01, 8.59104395e-02,
          4.29604156e-03, 5.37774002e-04, 1.32588640e-01, 3.87034863e-01,
          1.05627754e-03, 2.09226832e-03, 6.59486698e-03, 3.87034863e-01,
          3.21979076e-01, 8.89175746e-04, 1.68255530e-02, 4.46160883e-02,
          6.95129633e-02, 1.01127354e-02, 1.70704275e-02, 1.36830145e-02,
          1.92453876e-01, 8.98523778e-02, 1.85161103e-02, 1.16839714e-03,
          1.57943651e-01, 3.87034863e-01, 7.41984055e-04, 1.38558634e-03,
          7.46130757e-03, 3.87034863e-01, 3.87034863e-01, 4.74396069e-03,
          3.59108417e-05, 2.14642897e-01, 4.26370949e-01, 3.59580363e-03,
          1.60947631e-04, 3.55930388e-04, 3.09457630e-01, 1.40884653e-01,
          2.97237330e-05, 1.59016869e-03, 5.79423308e-02, 2.41727173e-01,
          8.29334930e-03, 1.97877176e-03, 2.04118015e-03, 3.23467795e-03,
          3.41597362e-03, 2.06844974e-03, 1.63231107e-05, 2.76980907e-01,
          4.26370949e-01, 3.58743127e-03, 2.17432516e-05, 6.24195673e-04,
          4.26370949e-01, 2.00591132e-01, 4.86620615e-04, 8.83976056e-04,
          8.45805854e-02, 3.20258886e-01, 7.61271827e-03, 6.72726834e-04,
          1.91545859e-03, 1.78247271e-03, 3.78850335e-03, 1.82214077e-03,
          5.64290546e-02, 1.00064665e-01, 2.93629229e-01, 9.39516872e-02,
          8.47444087e-02, 1.40499905e-01, 1.31055608e-01, 1.56113982e-01,
          1.05304435e-01, 6.95323497e-02, 2.54148878e-02, 3.83265726e-02,
          9.87723246e-02, 1.65113807e-01, 2.78432876e-01, 2.04908445e-01,
          2.38519281e-01, 1.65312156e-01, 3.53740677e-02, 1.56012744e-01,
          4.23109502e-01, 6.83597848e-02, 6.37971759e-02, 9.25268382e-02,
          1.26084879e-01, 2.16453746e-01, 9.72598940e-02, 5.81154935e-02,
          4.63954210e-02, 5.07234223e-02, 9.46400911e-02, 1.32931113e-01,
          1.04047641e-01, 2.28659555e-01, 3.55934650e-01, 1.92903429e-01,
          1.52328694e-02, 1.75425615e-02, 1.87160354e-02, 4.06985451e-03,
          4.53443034e-03, 9.56113916e-03, 1.48208275e-01, 6.95257559e-02,
          1.35734146e-02, 1.74066483e-03, 1.59676254e-01, 3.85756254e-01,
          3.08911258e-04, 9.94317816e-04, 6.17163721e-03, 3.85756254e-01,
          3.74466270e-01, 4.96825483e-03, 1.40871685e-02, 1.01464372e-02,
          4.19561472e-03, 3.25105968e-03, 7.69359851e-03, 8.53459165e-03,
          1.47885144e-01, 6.66880682e-02, 1.06388582e-02, 6.98435772e-03,
          1.76776469e-01, 3.85756254e-01, 1.39119627e-03, 9.25675617e-04,
          4.83044516e-03, 3.85756254e-01, 3.85756254e-01, 9.95045435e-03,
          8.86369889e-05, 2.20764458e-01, 3.88121247e-01, 2.25460296e-03,
          8.03118892e-05, 4.40088130e-04, 3.88121247e-01, 1.70318663e-01,
          5.89291332e-04, 4.48779028e-04, 5.98729178e-02, 2.69056648e-01,
          5.71382139e-03, 1.27195846e-03, 1.21195463e-03, 1.07655290e-03,
          2.05035391e-03, 9.79138771e-04, 7.35563575e-04, 2.47119784e-01,
          3.88121247e-01, 3.76272877e-03, 9.19476224e-05, 2.32372564e-04,
          3.88121247e-01, 2.12430611e-01, 1.64344243e-03, 9.68071574e-04,
          6.98500127e-02, 3.58521372e-01, 1.23993633e-02, 2.65535223e-03,
          1.16346998e-03, 8.25935625e-04, 2.28831638e-03, 1.62481947e-03,
          2.83029322e-02, 1.08189829e-01, 3.91239882e-01, 5.93586452e-02,
          1.03681684e-01, 9.76005346e-02, 9.02531445e-02, 1.50144577e-01,
          7.81038553e-02, 5.18983006e-02, 3.34310904e-02, 3.82577889e-02,
          7.82214627e-02, 1.99010298e-01, 1.35064244e-01, 1.52777418e-01,
          2.27998376e-01, 1.36235729e-01, 4.45212089e-02, 1.19963169e-01,
          5.11873603e-01, 1.46171883e-01, 1.68845281e-01, 9.11995098e-02,
          4.35604602e-02, 1.71971455e-01, 1.03832796e-01, 8.90660584e-02,
          3.77402082e-02, 4.97339554e-02, 9.57010984e-02, 2.23461509e-01,
          1.35656580e-01, 1.04107618e-01, 2.83919454e-01, 2.07404807e-01,
          1.59376152e-02, 1.20569551e-02, 5.50854532e-03, 8.86025373e-03,
          1.10451700e-02, 1.11319013e-02, 1.32725894e-01, 5.61035462e-02,
          9.98223200e-03, 8.02191626e-03, 1.55401498e-01, 3.89555424e-01,
          4.63174609e-03, 1.57256576e-03, 7.00165145e-03, 3.89555424e-01,
          3.89555424e-01, 7.69250700e-03, 2.05136091e-02, 2.12597810e-02,
          5.08092903e-03, 5.56586217e-03, 7.56152160e-03, 1.65335741e-02,
          1.25361204e-01, 5.42588308e-02, 1.21822795e-02, 1.14235161e-02,
          1.38906971e-01, 3.89555424e-01, 3.02402070e-03, 1.17389823e-03,
          8.13106447e-03, 3.89555424e-01, 3.89555424e-01, 7.33606471e-03,
          5.75664220e-04, 2.05619097e-01, 3.72374028e-01, 3.66097200e-03,
          1.81935844e-04, 2.78554915e-04, 3.69619876e-01, 1.83392346e-01,
          1.04893127e-03, 7.04046339e-04, 6.89936280e-02, 3.41341227e-01,
          1.31665943e-02, 2.98843230e-03, 6.87360123e-04, 1.22190744e-03,
          1.21007848e-03, 1.05582597e-03, 1.00370939e-03, 2.24046439e-01,
          3.72374028e-01, 1.40633667e-03, 1.66993763e-04, 3.08419869e-04,
          3.72374028e-01, 2.15170696e-01, 8.48283467e-04, 1.06345932e-03,
          1.04970038e-01, 3.72374028e-01, 6.59551146e-03, 1.04831764e-03,
          2.14848109e-03, 6.84924098e-03, 2.75049545e-03, 7.85140728e-04,
          2.20448673e-02, 8.96511152e-02, 4.25060660e-01, 1.83047339e-01,
          1.61732137e-01, 5.05009927e-02, 3.67143042e-02, 7.17627481e-02,
          4.33739275e-02, 3.93487662e-02, 2.08372027e-02, 3.39622647e-02,
          1.03857003e-01, 1.97067529e-01, 1.53349936e-01, 1.01964161e-01,
          1.26794547e-01, 7.68206492e-02, 6.23822398e-02, 2.18478143e-01,
          5.28765917e-01, 1.31430954e-01, 1.09241739e-01, 1.38452634e-01,
          9.32434946e-02, 5.84713891e-02, 4.12164330e-02, 9.40802246e-02,
          7.25658759e-02, 4.68600318e-02, 9.45062414e-02, 2.67656595e-01,
          2.81089276e-01, 1.89460859e-01, 1.15610741e-01, 7.55532831e-02,
          2.40845345e-02, 2.54346989e-02, 3.58255417e-03, 5.07264456e-04,
          3.82742425e-03, 6.77255075e-03, 7.55175278e-02, 4.18045036e-02,
          1.42461173e-02, 1.15576489e-02, 1.04182899e-01, 3.52483720e-01,
          7.12015462e-05, 4.50494495e-04, 2.39919033e-03, 3.52483720e-01,
          3.52483720e-01, 1.31954998e-02, 2.24419162e-02, 1.95373222e-02,
          6.14367519e-03, 3.78286885e-03, 3.52483720e-01, 3.15433890e-02,
          5.66031821e-02, 3.28424349e-02, 1.45443277e-02, 2.27532331e-02,
          1.45378947e-01, 3.52483720e-01, 9.76642361e-04, 2.69106805e-01,
          7.50867054e-02, 3.52483720e-01, 3.52483720e-01, 2.25013867e-02,
          7.48686783e-04, 1.84223473e-01, 3.56866419e-01, 1.16983159e-04,
          3.21177031e-05, 1.54823836e-04, 3.56866419e-01, 1.97603062e-01,
          1.79886888e-03, 7.45786761e-04, 9.63397026e-02, 3.56866419e-01,
          2.67049042e-03, 1.04204795e-04, 1.65027159e-03, 1.26263397e-02,
          5.51026687e-03, 4.74393106e-04, 1.00933593e-02, 2.63531387e-01,
          3.56866419e-01, 1.11673238e-04, 4.47061285e-02, 3.01767997e-02,
          3.56866419e-01, 2.39450082e-01, 6.59446884e-03, 1.64426735e-03,
          1.39450938e-01, 3.56866419e-01, 2.38100183e-03, 1.32239924e-03,
          1.68774463e-03, 2.10846532e-02, 9.87694878e-03, 7.15420058e-04,
          4.13919836e-02, 2.04028249e-01, 4.02550131e-01, 4.53870520e-02,
          5.70217073e-02, 1.15861684e-01, 9.88248885e-02, 9.75412801e-02,
          3.41678113e-02, 5.32242283e-02, 5.19541502e-02, 3.55300382e-02,
          3.28810140e-02, 2.04951689e-01, 2.41087690e-01, 1.98948950e-01,
          1.33254245e-01, 6.94510639e-02, 1.43881757e-02, 2.57960916e-01,
          3.84452313e-01, 4.52446565e-02, 8.41598511e-02, 9.10454243e-02,
          1.36594146e-01, 1.96498230e-01, 5.60082905e-02, 1.33714508e-02,
          9.34415590e-03, 1.21996477e-02, 3.21556516e-02, 1.53095916e-01,
          2.02365234e-01, 2.42777079e-01, 3.71348143e-01, 1.54464573e-01,
          2.28107840e-01, 3.94607009e-03, 1.97159476e-03, 3.42931226e-03,
          2.87282795e-01, 4.70821820e-02, 1.53093617e-02, 6.83181547e-03,
          1.90992042e-01, 2.87282795e-01, 1.20565504e-01, 2.10024983e-01,
          7.63216463e-04, 2.87282795e-01, 1.13178357e-01, 2.87282795e-01,
          1.23145714e-01, 2.03202218e-01, 2.87282795e-01, 4.48058778e-03,
          9.19021331e-05, 1.40773144e-03, 2.46002704e-01, 2.00814363e-02,
          8.86145164e-04, 1.63709003e-04, 2.87282795e-01, 2.87282795e-01,
          1.60437062e-01, 4.43384573e-02, 1.04754035e-04, 1.63085788e-01,
          4.09812890e-02, 3.07300109e-02, 7.43037369e-03, 2.87282795e-01,
          3.02890718e-01, 3.29967737e-01, 3.29967737e-01, 1.07026106e-04,
          1.49920166e-01, 9.10994932e-02, 3.29967737e-01, 1.58759624e-01,
          1.18974619e-01, 3.98900472e-02, 2.44214505e-01, 3.29967737e-01,
          1.54046970e-03, 4.03585425e-03, 7.19294138e-03, 1.88825857e-02,
          8.00969731e-03, 3.42187029e-03, 3.29967737e-01, 3.29967737e-01,
          1.92331985e-01, 3.85800144e-04, 5.84801398e-02, 3.29286903e-02,
          4.44075800e-02, 1.16661070e-02, 1.66580841e-01, 7.26869926e-02,
          1.80679098e-01, 1.01697505e-01, 2.26795604e-03, 3.68848466e-03,
          8.44690949e-03, 5.84461680e-03, 4.71376069e-03, 6.92680944e-03,
          3.05966251e-02, 2.90701360e-01, 2.81160057e-01, 3.35113592e-02,
          1.35063156e-01, 1.76125944e-01, 1.48691326e-01, 1.38113990e-01,
          4.64292131e-02, 2.72865929e-02, 7.06928829e-03, 1.06302481e-02,
          2.74881013e-02, 1.30558401e-01, 2.48793468e-01, 2.78833419e-01,
          3.58108938e-01, 1.66776493e-01, 4.96120825e-02, 1.31566733e-01,
          9.21827555e-02, 2.46049929e-02, 1.00799255e-01, 1.88220486e-01,
          1.51302040e-01, 1.00067161e-01, 3.95484157e-02, 1.35568045e-02,
          7.56433001e-03, 1.15225781e-02, 1.21829342e-02, 1.58653483e-01,
          3.31766069e-01, 3.86772782e-01, 1.54029384e-01, 3.72709557e-02,
          3.64836901e-01, 7.58633390e-02, 1.56442204e-03, 0., 0., 0., 0.,
          7.73138891e-04, 3.64836901e-01, 3.64836901e-01, 3.64836901e-01,
          2.58308370e-02, 2.71706260e-04, 0., 3.63947504e-04,
          9.26252746e-04, 3.14824283e-04, 2.82256514e-01, 3.64836901e-01,
          1.20009951e-01, 3.20929685e-03, 1.31801920e-04, 6.68321154e-04,
          0., 1.40407390e-03, 2.07309425e-03, 1.39080092e-01,
          2.97123581e-01, 3.47309560e-01, 2.68433895e-02, 3.15442286e-03,
          5.92638645e-03, 4.86988894e-04, 3.55708529e-03, 3.97058809e-03,
          3.55866104e-02, 5.57404220e-01, 5.57404220e-01, 7.80086145e-02,
          6.33148570e-03, 2.40066997e-03, 2.33338512e-02, 1.74690410e-02,
          6.73947483e-03, 1.80361912e-01, 1.29856989e-01, 2.37455875e-01,
          3.34277302e-02, 2.44212113e-02, 1.83618777e-02, 4.42957133e-02,
          4.90718000e-02, 4.66331616e-02, 3.25710587e-02, 1.53637797e-01,
          4.39585388e-01, 6.27285913e-02, 1.47157591e-02, 2.08747983e-02,
          1.69628970e-02, 3.87287401e-02, 1.76142082e-02, 1.50361136e-02,
          1.78500041e-02, 3.68560962e-02, 1.49325244e-02, 1.96602121e-02,
          3.95830758e-02, 8.90035704e-02, 1.11707948e-01, 4.79979925e-02,
          1.62795577e-02, 2.23724134e-02, 2.17044838e-02, 1.95043664e-02,
          2.30068397e-02, 8.00263286e-02, 1.53697103e-01, 2.06917509e-01,
          1.34671107e-01, 3.87492441e-02, 1.90849835e-03, 1.06068759e-03,
          1.60773296e-03, 0., 1.65751711e-01, 2.99138725e-01,
          3.66299212e-01, 1.24042243e-01, 9.75690968e-03, 5.42950351e-03,
          7.11603556e-03, 9.56325699e-03, 1.63106378e-02, 8.91801938e-02,
          3.24292958e-01, 3.69157553e-01, 1.34877637e-01, 1.51818050e-02,
          8.37524328e-03, 0., 0., 0., 1.20266639e-01, 3.28644872e-01,
          4.67294693e-01, 1.48628086e-01, 1.11966943e-02 ]
      - [ 5.78071875e-03, 2.54599331e-03, 9.69314482e-03, 1.42558869e-02,
          1.49331212e-01, 1.45186990e-01, 3.67766827e-01, 3.67766827e-01,
          1.11284159e-01, 1.52959939e-04, 9.10078161e-05, 5.11363905e-04,
          1.07539603e-02, 2.02172950e-01, 1.02184564e-01, 1.00406393e-01,
          5.31233288e-02, 2.20286520e-03, 6.13542693e-03, 5.60118491e-03,
          1.10612465e-02, 1.13940798e-02, 3.67766827e-01, 3.67766827e-01,
          3.67766827e-01, 3.67766827e-01, 4.34357598e-02, 6.62826409e-04,
          2.00217211e-04, 7.32151791e-04, 2.42231507e-02, 1.18699387e-01,
          1.25674605e-01, 1.70480609e-01, 5.11713326e-02, 3.04810633e-03,
          2.64940580e-04, 1.00227492e-02, 2.42059510e-02, 2.86778901e-02,
          1.85195521e-01, 4.84835990e-02, 9.61798336e-03, 1.82250072e-03,
          2.64940580e-04, 6.11401265e-05, 4.46860194e-01, 4.83749241e-01,
          5.57410195e-02, 1.04459107e-01, 1.58459973e-02, 5.47430776e-02,
          1.35959554e-02, 6.11401265e-05, 1.14807568e-03, 1.53195923e-02,
          4.22176272e-02, 4.69473898e-02, 1.34715810e-01, 3.52545939e-02,
          1.23851961e-02, 1.13763113e-03, 1.47034228e-03, 2.64940580e-04,
          4.83749241e-01, 4.83749241e-01, 5.19745015e-02, 7.75128230e-02,
          7.34667573e-03, 6.94250390e-02, 1.96475815e-02, 2.64940580e-04,
          9.95758572e-04, 3.84058475e-01, 4.15465444e-01, 1.70170981e-02,
          1.16770649e-02, 4.24921839e-03, 1.85165837e-01, 4.43389751e-02,
          2.07301186e-04, 2.25277757e-03, 9.93424132e-02, 2.68102318e-01,
          3.50235449e-03, 3.41114734e-04, 2.74473918e-03, 1.45459414e-01,
          3.39752063e-02, 5.18171233e-04, 3.30091047e-04, 4.15465444e-01,
          4.15465444e-01, 1.08271921e-02, 7.83664268e-03, 1.93391473e-03,
          2.19250977e-01, 6.61660731e-02, 9.42278130e-05, 9.89249558e-04,
          1.17555447e-01, 3.08114886e-01, 5.04719000e-03, 1.82462114e-04,
          8.15534848e-04, 1.60465673e-01, 5.06853983e-02, 4.70350467e-04,
          1.95556087e-03, 1.90877577e-03, 2.34102784e-03, 2.97922338e-03,
          3.55325669e-01, 3.55325669e-01, 3.50184560e-01, 6.50442764e-02,
          2.75443587e-03, 5.96805126e-04, 1.24479097e-03, 3.48143023e-03,
          2.87485346e-02, 1.11418381e-01, 1.40500054e-01, 1.26042888e-01,
          1.60988979e-02, 6.59470214e-03, 3.55325669e-01, 1.96032343e-04,
          9.39586957e-04, 2.47649429e-03, 3.35821733e-02, 8.09546784e-02,
          2.18771547e-01, 1.46623030e-01, 3.55325669e-01, 1.42243668e-01,
          1.52916778e-02, 2.79803369e-02, 3.00992187e-02, 4.72573377e-02,
          1.15490772e-01, 2.33685642e-01, 1.64846182e-01, 3.44663173e-01,
          1.04595034e-03, 1.39321852e-02, 5.07759340e-02, 3.86758372e-02,
          7.64665529e-02, 2.37118453e-02, 1.32025182e-02, 8.97301943e-04,
          1.74552295e-03, 5.97477774e-04, 4.78903919e-01, 4.92894560e-01,
          4.02720496e-02, 3.73192243e-02, 3.15243984e-03, 5.83473854e-02,
          2.06442643e-02, 9.11415264e-05, 1.15059991e-03, 3.19649465e-02,
          8.59469026e-02, 4.63667139e-02, 2.66616978e-02, 2.64125522e-02,
          3.24446224e-02, 1.53678739e-02, 1.04761505e-02, 6.51003676e-04,
          4.92894560e-01, 4.92894560e-01, 3.94088514e-02, 5.35281934e-03,
          9.64768173e-04, 5.94694689e-02, 2.63473168e-02, 0.,
          4.42524673e-04, 4.10731465e-01, 4.16433811e-01, 7.57111143e-03,
          3.15416767e-03, 1.00254291e-03, 1.84126019e-01, 7.19137415e-02,
          0., 1.24456722e-03, 1.07431963e-01, 2.59566784e-01,
          2.34820251e-03, 1.88577338e-04, 4.55701345e-04, 1.29878566e-01,
          5.45405261e-02, 2.71013094e-04, 1.72487902e-03, 4.16433811e-01,
          4.16433811e-01, 5.52537153e-03, 8.64996127e-06, 2.07986468e-05,
          1.97558880e-01, 9.44700539e-02, 0., 4.02931403e-03,
          1.21756501e-01, 2.82464385e-01, 1.56630913e-03, 3.43973748e-04,
          9.45393094e-06, 1.45014614e-01, 7.30224997e-02, 2.34580613e-04,
          3.15269619e-01, 7.55086367e-05, 7.10107561e-04, 1.56809587e-03,
          2.57224202e-01, 6.06333017e-02, 2.10072294e-01, 1.42365873e-01,
          3.15269619e-01, 8.62741098e-02, 5.87650295e-03, 1.02090491e-02,
          1.24115497e-02, 7.59400651e-02, 6.10144399e-02, 3.15269619e-01,
          1.94278091e-01, 2.11493939e-01, 1.27955019e-01, 3.07332637e-04,
          1.32588740e-03, 5.60659589e-03, 3.15269619e-01, 1.62115455e-01,
          2.36338034e-01, 1.05770037e-01, 1.58926636e-01, 3.50405648e-02,
          5.15007507e-03, 9.60931275e-03, 1.22589897e-02, 2.91292340e-01,
          1.31261408e-01, 3.15269619e-01, 1.49233043e-01, 7.13979602e-02,
          6.85210805e-03, 3.55027765e-02, 7.62006044e-02, 4.51379754e-02,
          1.61786471e-02, 1.66613106e-02, 9.97046381e-02, 5.19611984e-02,
          1.75804161e-02, 2.85129808e-03, 4.83190268e-01, 4.83190268e-01,
          3.15857492e-02, 3.30923614e-03, 4.41345415e-04, 4.87223007e-02,
          1.60627775e-02, 1.12288422e-03, 3.06517668e-02, 5.00297137e-02,
          9.06925425e-02, 3.97935398e-02, 2.11962648e-02, 2.44979486e-02,
          1.16470486e-01, 4.32864279e-02, 1.46212541e-02, 1.59251243e-02,
          4.83190268e-01, 4.83190268e-01, 2.78878976e-02, 2.59191939e-03,
          4.26601293e-03, 5.98750412e-02, 1.98285058e-02, 1.96330971e-03,
          7.58052978e-04, 4.10661995e-01, 4.14177895e-01, 3.60412989e-03,
          4.02091937e-05, 1.10701490e-04, 1.86238289e-01, 6.25445396e-02,
          0., 1.72490301e-03, 9.59591493e-02, 2.46983215e-01,
          1.82451552e-03, 1.93861459e-04, 4.18814852e-05, 1.44906476e-01,
          4.96225134e-02, 1.31204433e-04, 5.32199629e-04, 4.14177895e-01,
          4.14177895e-01, 3.11010028e-03, 1.74239845e-04, 3.50097136e-04,
          2.26072982e-01, 7.06963539e-02, 0., 2.55998340e-04,
          1.18352875e-01, 2.76673883e-01, 8.35627143e-04, 1.98835973e-04,
          3.25744877e-05, 1.75560862e-01, 5.29948138e-02, 1.71464286e-04,
          1.81485675e-02, 5.58255985e-03, 1.18651958e-02, 2.89058071e-02,
          5.25940359e-01, 2.82630503e-01, 2.33658627e-01, 1.30462497e-01,
          4.05804515e-02, 8.13457742e-02, 4.59095240e-02, 5.04377782e-02,
          3.16821821e-02, 5.25940359e-01, 2.11774871e-01, 3.35796505e-01,
          1.33011281e-01, 7.16857165e-02, 3.95848490e-02, 2.43433174e-02,
          2.84662768e-02, 2.16041133e-02, 4.01902050e-02, 4.58347388e-02,
          1.12995520e-01, 1.20094657e-01, 6.62275627e-02, 1.36051968e-01,
          1.04928210e-01, 6.83404580e-02, 2.36940254e-02, 2.67096981e-02,
          2.93751471e-02, 7.54123181e-02, 7.99022540e-02, 8.48550126e-02,
          3.48160230e-02, 6.43803477e-02, 8.75262544e-02, 1.67940520e-02,
          9.10744630e-03, 9.83197801e-03, 2.63757166e-02, 9.81178600e-03,
          1.11635597e-02, 1.78147126e-02, 4.87940848e-01, 4.87940848e-01,
          1.03473570e-02, 6.39858423e-04, 2.72373948e-03, 5.54972850e-02,
          2.07159072e-02, 9.84235667e-04, 4.54311408e-02, 9.06692147e-02,
          9.16442871e-02, 7.02307187e-03, 1.57267472e-03, 1.47197372e-03,
          7.12227216e-03, 6.75980560e-03, 1.56436842e-02, 1.35013284e-02,
          4.87940848e-01, 4.87940848e-01, 2.87957606e-03, 3.87862638e-05,
          6.30676222e-04, 6.86906204e-02, 2.12148316e-02, 2.20682472e-03,
          1.17268390e-03, 4.12731260e-01, 4.12731260e-01, 9.27345769e-04,
          6.45514301e-05, 5.49958728e-04, 1.99273780e-01, 7.17613623e-02,
          0., 4.15879244e-04, 1.04863048e-01, 2.36343652e-01, 0.,
          1.52879598e-04, 2.05590142e-04, 1.48681417e-01, 5.19832671e-02,
          1.31514389e-04, 7.97031214e-04, 4.12731260e-01, 4.12731260e-01,
          7.92348437e-05, 0., 2.54585058e-03, 2.34632507e-01,
          7.12287053e-02, 0., 4.44848527e-04, 1.09919794e-01,
          2.73294955e-01, 1.14987684e-04, 3.67261382e-04, 2.04760162e-03,
          1.68803573e-01, 5.05785681e-02, 2.17917303e-04, 1.38837159e-01,
          6.93739206e-02, 4.86712195e-02, 2.07692105e-02, 2.67591309e-02,
          4.38480787e-02, 1.32632360e-01, 2.70099580e-01, 2.87708849e-01,
          2.88206428e-01, 2.33853266e-01, 1.47461697e-01, 4.54267897e-02,
          1.67657062e-02, 1.93168204e-02, 6.43566251e-02, 1.68596685e-01,
          2.35372275e-01, 2.01401815e-01, 6.53840899e-02, 1.57409385e-02,
          2.84492038e-03, 8.32709018e-03, 9.48495045e-03, 1.05110228e-01,
          2.14171737e-01, 3.36988896e-01, 3.86245221e-01, 2.47038752e-01,
          8.62164125e-02, 1.36205889e-02, 2.71830317e-02, 0.,
          5.42705432e-02, 1.51738644e-01, 2.86274493e-01, 3.79496627e-02,
          7.21191838e-02, 7.84916803e-02, 5.94916428e-03, 5.70214121e-04,
          3.10339179e-04, 2.69082654e-03, 5.15690725e-03, 1.93796847e-02,
          1.01884902e-02, 4.88491148e-01, 4.88491148e-01, 2.20780913e-03,
          0., 2.38585431e-04, 6.23184741e-02, 2.08204985e-02,
          4.54795361e-03, 5.58797978e-02, 8.39385912e-02, 7.84697607e-02,
          4.59941616e-03, 1.88863929e-03, 0., 1.73529156e-03,
          5.62347099e-03, 2.43546627e-02, 2.13265736e-02, 4.88491148e-01,
          4.88491148e-01, 3.47626372e-03, 0., 0., 6.94153532e-02,
          2.48093065e-02, 7.30693480e-03, 2.05683391e-04, 4.13418621e-01,
          4.13418621e-01, 7.43798955e-05, 0., 1.43346225e-03,
          2.06714362e-01, 7.07878470e-02, 0., 3.85257736e-04,
          1.00255921e-01, 2.47358054e-01, 3.24674009e-04, 8.62387300e-04,
          1.37467543e-03, 1.44251838e-01, 5.07690795e-02, 2.32302700e-04,
          1.12174847e-03, 4.13418621e-01, 4.13418621e-01, 4.49157640e-04,
          0., 4.37407725e-04, 2.23354593e-01, 8.42240751e-02, 0.,
          5.69661031e-04, 1.12794064e-01, 2.71614015e-01, 7.96284468e-04,
          8.50125274e-04, 5.62381349e-04, 1.50731668e-01, 6.03193492e-02,
          6.71510119e-04, 6.93765283e-02, 1.56743582e-02, 6.43836427e-03,
          2.86539696e-04, 2.33232393e-03, 4.81241936e-04, 2.63829436e-02,
          5.65705262e-02, 1.09519869e-01, 1.31505042e-01, 8.82291719e-02,
          4.17313129e-02, 1.79636874e-03, 6.75833691e-03, 0.,
          1.31259887e-02, 3.38057578e-02, 1.15466237e-01, 4.80442971e-01,
          1.33769447e-02, 6.25044061e-03, 1.24167185e-03, 1.36622009e-04,
          0., 8.20484105e-03, 4.68402542e-02, 4.80442971e-01,
          4.80442971e-01, 7.01758116e-02, 3.05994637e-02, 5.38057880e-03,
          3.00568441e-04, 0., 4.63323994e-03, 3.15351300e-02,
          4.80442971e-01, 4.73305918e-02, 8.32667276e-02, 5.67976311e-02,
          9.98085947e-04, 8.69418145e-04, 0., 7.40194693e-04,
          3.79766827e-03, 1.98635384e-02, 2.31643841e-02, 4.32992786e-01,
          4.32992786e-01, 9.75791132e-04, 0., 8.43102025e-05,
          5.88633530e-02, 1.67587791e-02, 4.41740127e-03, 2.87942201e-01,
          8.48253444e-02, 4.94368225e-02, 7.25956867e-04, 2.45967640e-05,
          0., 3.02319444e-04, 5.61646745e-03, 2.52246141e-01,
          2.16868430e-01, 4.32992786e-01, 4.32992786e-01, 0., 0.,
          1.85482451e-04, 6.44752532e-02, 1.83108281e-02, 1.44552886e-01,
          2.18999549e-03, 4.14583176e-01, 4.14583176e-01, 2.54893937e-04,
          0., 1.12057978e-03, 2.15625986e-01, 6.33100122e-02,
          7.39420066e-05, 7.71542895e-04, 1.03357673e-01, 2.50115424e-01,
          2.79314350e-03, 5.53489430e-04, 1.24739646e-03, 1.41884252e-01,
          4.30502445e-02, 1.48306275e-03, 6.04015738e-02, 4.14583176e-01,
          4.14583176e-01, 1.31214429e-05, 0., 1.38649752e-03,
          2.23589897e-01, 7.13661462e-02, 2.84317173e-02, 1.15957139e-02,
          1.57222226e-01, 2.37226456e-01, 3.96472821e-03, 4.05300088e-04,
          1.35727203e-03, 1.39233813e-01, 4.97981831e-02, 6.16145926e-03,
          3.42610240e-01, 4.18910803e-03, 5.78626711e-03, 1.80730335e-02,
          1.02376603e-01, 1.58522942e-03, 2.75109574e-04, 3.65665229e-03,
          3.42610240e-01, 3.42610240e-01, 4.98429919e-03, 1.39457092e-03,
          9.86268558e-03, 5.17102070e-02, 2.05803779e-03, 1.18616786e-04,
          2.84494925e-03, 3.42610240e-01, 3.35199594e-01, 4.89018112e-02,
          8.27258825e-02, 4.22544107e-02, 1.66331351e-01, 2.42297770e-03,
          1.64966786e-03, 8.41984339e-03, 3.42610240e-01, 3.42610240e-01,
          2.46397927e-02, 9.63234808e-03, 1.99945532e-02, 9.47188213e-02,
          2.94535724e-03, 2.68924312e-04, 3.80676705e-03, 3.42610240e-01,
          3.11575383e-01, 2.33979076e-02, 1.32371103e-02, 6.22194028e-03,
          2.81777643e-02, 3.47162713e-04, 2.65476883e-05, 1.97531283e-03,
          3.11575383e-01, 3.11575383e-01, 3.11575383e-01, 3.11575383e-01,
          2.37888889e-03, 3.62067036e-02, 5.99986222e-03, 3.05175092e-02,
          1.11415088e-02, 3.11575383e-01, 3.11575383e-01, 9.28295590e-03,
          1.61763094e-03, 1.32566951e-02, 6.03943728e-02, 4.46352031e-04,
          6.75412768e-04, 5.97863086e-03, 3.11575383e-01, 3.11575383e-01,
          9.38511342e-02, 5.58392592e-02, 5.23355557e-03, 7.81597048e-02,
          8.56691133e-03, 1.03147468e-02, 7.87554868e-03, 3.11373949e-01,
          3.75610262e-01, 3.75610262e-01, 3.75610262e-01, 8.63506051e-04,
          5.24609759e-02, 2.78133750e-02, 2.36681283e-01, 9.40579548e-02,
          2.05177829e-01, 7.94180781e-02, 2.78970480e-01, 1.83966279e-01,
          1.92197843e-03, 7.78122665e-03, 9.46431048e-03, 1.39012322e-01,
          6.20502643e-02, 1.55800264e-02, 3.75610262e-01, 2.50561684e-01,
          1.40984535e-01, 1.89971318e-03, 1.09517328e-01, 3.72226387e-02,
          6.75568879e-02, 4.07575034e-02, 1.81298256e-01, 1.31943420e-01,
          1.51665002e-01, 2.61219591e-02, 3.47971043e-04, 1.52497860e-02,
          1.10280234e-02, 3.64246927e-02, 2.70708781e-02, 3.51657271e-02 ]
      - [ 5.81147037e-02, 7.65156150e-02, 3.36761862e-01, 1.91405062e-02,
          4.25281450e-02, 8.19926616e-03, 3.36761862e-01, 2.70953447e-01,
          5.22953272e-02, 6.31499453e-04, 8.57662559e-02, 3.36761862e-01,
          2.41730716e-02, 7.28766574e-03, 8.49877833e-04, 1.58853441e-01,
          8.09133500e-02, 3.54636624e-03, 5.93828327e-06, 1.18018396e-01,
          3.36761862e-01, 1.53866792e-02, 5.79326367e-03, 2.95916828e-03,
          3.36761862e-01, 3.18288565e-01, 5.93828327e-06, 0.,
          1.35160103e-01, 3.36761862e-01, 5.31565957e-03, 5.37914930e-05,
          0., 2.04034507e-01, 1.15452409e-01, 0., 2.32626474e-03,
          1.47906855e-01, 6.30010068e-01, 1.87422335e-01, 2.79170927e-02,
          2.19945726e-03, 2.66768085e-03, 1.94962777e-03, 1.27153809e-03,
          4.90768161e-03, 2.72249132e-02, 9.48701948e-02, 7.20038563e-02,
          3.15134600e-02, 1.11249806e-02, 1.84709970e-02, 6.11039624e-03,
          3.01749725e-03, 2.16383208e-03, 2.89843798e-01, 6.30010068e-01,
          7.73634538e-02, 3.41835083e-03, 0., 0., 0., 4.19293465e-05,
          3.94629873e-03, 5.64656034e-02, 1.73176795e-01, 4.55469601e-02,
          1.60775650e-02, 5.79222152e-03, 6.92402478e-03, 2.03279057e-03,
          4.85099357e-04, 1.41187543e-02, 4.34680209e-02, 9.76849943e-02,
          5.08524477e-02, 1.42804936e-01, 1.34736657e-01, 1.96866751e-01,
          1.01570904e-01, 1.63722299e-02, 3.63481864e-02, 5.32862693e-02,
          9.35431793e-02, 3.41623016e-02, 2.00862378e-01, 2.04904437e-01,
          3.39747280e-01, 2.98694640e-01, 1.21831484e-01, 2.36562081e-02,
          2.69584190e-02, 7.19813108e-02, 5.82826212e-02, 9.16406214e-02,
          1.17921092e-01, 1.68395743e-01, 9.20917541e-02, 4.83038463e-02,
          5.26954569e-02, 2.19123140e-02, 7.95501620e-02, 9.69038829e-02,
          1.68813020e-01, 2.48148099e-01, 4.43670094e-01, 3.92812878e-01,
          1.90583766e-01, 2.67886207e-05, 1.06038913e-01, 3.38515550e-01,
          1.51507361e-02, 5.74891409e-03, 9.75424482e-04, 3.38515550e-01,
